-1.0776565,1.1736741,0.9351572,1.650105,-0.259136,-0.21392271,-0.7267653,-2.4415224,-1.9644686,-0.78478056,-1.9998235,-0.5260018,-0.581573,0.8883769,2.1884294,-0.2588054,0.55848175,-0.7268332,2.1608775,1.4309465,0.40328106,0.4046708,1.2855498,-0.47092003,1.7602587,1.3824128,1.740066,3.866438,1.7905158,-0.052746248,-3.0366135,0.14631031,-1.7468691,0.2337106,-0.2160244,-0.1382403,0.9654173,-0.023089726,-0.1966708,-1.3909506,-0.121135734,1.0173478,2.3460577,0.12363715,1.091575,1.9790779,-2.1795976,-0.019492464,-2.167188,-0.47844663,-0.36801845,-0.067987815,-2.343053,-1.9589822,1.0776359,0.41783795,4.119699,-1.3729755,1.2142026,0.32315445,-2.0722506,-1.0538265,0.5782875,-2.7194073
-2.7855372,0.6478362,-0.21758413,1.9460132,1.3239582,0.7573558,0.30252352,-1.0482556,-0.86889976,-0.170804,-2.2568693,0.6301149,-0.2995532,1.7227263,3.3262584,-0.43186963,0.06780495,-0.27926996,1.2653337,1.536902,0.53797793,0.9753665,-0.5638442,0.36951622,1.4017143,0.7936868,0.121745765,1.9924073,0.30569422,0.10561224,-2.8757856,0.110365056,-0.7705987,0.09408441,-2.8879497,-2.7671397,0.934272,0.040676557,0.97248006,-0.34699535,-0.07330309,2.7671723,0.59858364,-0.13072127,-0.1788929,1.2955861,-1.2288064,0.4629276,-2.423004,0.80996925,0.81296873,-1.3694906,-3.1417773,-2.504483,-0.27829072,0.22743715,1.6996673,-2.435063,1.5390682,0.7724105,-0.6330386,-1.0808907,-0.23982632,-2.3818235
-1.1518822,0.055437334,-0.29713124,0.50248563,1.5610409,0.83427787,0.086481236,-0.54343504,-1.9730891,-1.0700607,-0.57398385,-0.44682768,1.33524,-0.025946492,-0.5217962,-1.2405678,0.7801578,-0.47571844,-0.2689221,1.6034783,-0.44205025,0.2986986,-0.11282274,0.93266463,-0.4371096,0.1624634,-0.04987951,0.29478487,-0.5259223,1.2226537,-2.449117,-0.30172554,-0.6147089,-0.22452238,-0.13947207,-5.444125,1.2295263,-0.09139808,1.1241612,0.44128278,-0.21223095,1.6395487,0.9641628,0.88260984,0.009963251,1.407791,-0.29044807,0.7350206,-0.59139025,0.24040404,1.5093445,-1.2917309,-2.1432745,-1.9073014,-0.6218402,-0.34922573,1.5470017,-1.3454754,0.3469636,1.6078653,-0.92025846,0.65478873,0.31839234,-3.1853907
1.1805174,0.057990387,0.50411564,-0.39809147,0.71889114,0.14459088,0.35165325,-1.1734008,-1.3975872,-1.1565957,-0.9976066,0.36193946,2.2725778,0.13389091,0.23585676,-0.014276622,0.472315,-0.1958257,0.99227583,1.3756422,0.5123972,0.5850331,0.96155816,0.46171096,0.29941022,0.7986891,-0.14456101,1.0963793,0.6927683,0.9319729,-2.1608615,0.630637,-0.49764365,0.24797016,-1.6145695,-6.9565606,0.88129157,0.108092114,0.8619771,1.1556467,-0.18333292,1.5433955,1.513692,0.24883233,-0.58806217,0.9041381,0.8382933,-0.7858491,-0.50679284,-0.111107625,-0.649293,0.09880623,-1.4019706,-2.0479388,0.09341233,-0.47021163,0.88727945,-1.0274061,0.67634994,0.808403,0.91298866,0.105114296,0.88729924,-2.635078
2.0984254,-0.50335366,-0.82571644,-0.56702864,-0.95809484,-0.23824835,-0.807276,-0.9219221,-1.1016924,0.66307247,0.2601268,0.5632579,1.4188341,0.38205564,-0.15450586,0.72137904,0.78738946,-0.31823424,-0.5480059,-0.55286604,-0.2475553,-0.2079981,-0.92998546,0.27181938,-0.12701337,-1.2296647,0.49311474,1.3381069,0.62953067,1.2445117,0.25185624,0.48570794,-0.55423397,-0.105320774,-1.0697887,-5.391771,0.86567134,0.2922536,1.2983925,0.67488056,-0.12548573,0.7540802,0.85155493,0.21659084,0.48155957,0.4626225,0.390227,0.4333817,0.34657815,0.24460578,-1.5569897,-1.5187031,-3.5469792,-1.3213555,0.02489362,-1.3346835,0.74605167,-0.43708652,0.15363158,-0.5772578,0.5478595,0.29598668,0.88705355,-3.2858398
1.0363082,-0.21916674,-0.23213035,-3.1832976,-1.1108328,0.60514927,-0.91707027,0.35181865,-1.9370198,0.7396122,1.4121867,0.7759696,0.97307473,0.9423307,-0.5850344,0.63413244,0.4717084,0.08413804,-0.6483693,-1.0725918,-0.6463926,-0.5556007,-0.77482784,0.37875795,-1.4013948,-0.54480094,0.537477,1.2620362,1.2617148,1.0153453,0.030125152,-0.20732486,0.3515119,0.75459373,-1.0924693,-2.6554682,0.054144096,-0.2299278,0.82223475,0.33305687,-1.023821,2.217446,0.6571326,-0.012664287,0.3892978,-0.022336379,1.0877596,0.13526754,0.3494224,0.1522561,-0.255594,0.84291685,-2.4645596,-0.9975716,0.19744213,-0.8742473,-0.22141606,2.254711,1.1086364,-0.64094216,0.3909824,0.02354238,-1.2745188,-2.458241
-0.96559405,0.32877967,0.17054327,-4.002178,-2.0557804,-0.36436835,-1.2337533,-0.71349657,-2.308425,-0.056511912,2.910152,0.2882794,0.09641866,0.8893997,-0.2129696,0.3683999,-0.12982944,-0.10485074,-3.540586,-0.78657687,-0.3326945,0.22718528,-0.91714466,-0.3560476,-0.56483513,-0.5434027,0.28831932,0.4557571,0.50265896,0.5104412,-0.5941203,0.38774204,0.6182104,-0.33338496,-1.0610436,-0.8847139,1.2920581,-0.771121,0.35372508,-0.46929526,-1.4334359,0.11493138,0.87705433,0.0325548,1.5097331,0.47349635,0.47388235,-0.05751538,0.77329546,-1.643597,-0.4071929,0.72866833,-2.0302422,-1.6298084,0.5409122,0.2780028,-0.39085764,0.18189235,0.18890883,0.05900534,0.08118087,0.8964154,0.5872297,-3.7578104
-1.6701051,-0.0619908,-1.4953296,-2.3328617,-1.262101,0.5689731,0.06529843,-0.44638655,-0.5209397,-0.37159052,3.450145,0.8829563,0.14390601,0.3971582,-1.6111206,0.56529796,0.12645654,0.17671002,-6.634364,-0.9253053,-1.6894593,-0.84846455,-0.9215386,0.13237934,-0.7045853,-0.13299012,0.53915024,0.5124338,0.82304865,0.431471,-0.5044482,0.64501536,0.7445872,-0.16198502,-0.6881286,0.56633294,1.0727019,0.1584228,0.18552004,0.62275225,-1.3787605,0.21914515,0.17093436,-0.13027231,0.10252957,1.2836972,0.30019644,-0.07170027,1.2893437,-1.1861565,-0.20806918,0.13849464,-3.3834426,0.6447843,0.26197925,-0.16377853,-0.6591788,2.328042,0.33095446,-2.4415085,0.8836625,-0.24693045,0.7470551,-3.7369053
-1.4114131,0.2483177,-0.9434534,0.07915377,0.4647341,0.86908394,-0.64153665,-0.06730086,-1.1424621,-0.62725747,2.187849,0.8068791,-0.7217709,0.4974721,-3.118654,-0.16098538,0.332851,0.11306797,-3.1726327,-0.19396085,-2.965068,0.09775814,-1.4621633,0.3857987,0.39757288,-0.14276658,-0.18655007,1.2584842,0.3430465,0.38843128,0.504406,0.58500606,0.16372827,-0.7596042,-0.5343073,-0.5015789,1.0782505,0.48713878,-0.17825921,-0.7984273,-0.95764,-0.4111538,-0.7921789,-0.5106908,0.69181806,1.0209832,-0.22514722,0.94593644,0.58070636,-0.59282,-0.647613,-0.5670793,-3.6897967,0.81316185,0.51141214,-2.9922175,-1.8077282,0.5893674,-0.49381542,-2.9260235,0.46231252,0.6202836,-0.110013425,-2.658732
-1.8774787,-0.36566833,-1.6867858,-1.4427242,-1.5197519,0.1153598,-0.8363643,-0.060683873,-0.46779412,0.49442875,2.272099,1.2176139,-0.48262137,-0.396519,-2.3625715,-0.114607975,0.17234904,-0.63037044,-0.59656525,-1.4934502,-3.695193,-0.3370255,-2.1016843,0.8987696,1.3115047,0.058789108,-0.14084741,0.98843664,-0.13078919,0.13128065,-1.1732297,0.56417006,-0.044342354,-0.65260816,-0.81648934,-0.2630977,1.1203392,1.1188067,-0.0865729,0.05056196,-0.46102908,1.2966409,0.097052485,-0.4348526,-0.21654172,1.0172267,-0.108610764,0.48436812,0.84517676,-0.49231437,-0.1292647,-0.75576746,-2.9697902,0.21086009,0.1562575,-0.03485312,-2.3556702,-0.544804,0.091010526,0.8167043,0.31117624,1.0399523,1.4890589,-0.7305735
-2.693259,0.3802095,-0.022896318,0.20197625,-1.3519328,0.47073582,-0.16149832,-0.09778247,0.0053429105,0.1240942,1.8130778,0.867798,-0.76033664,-0.07758984,-2.418104,-0.1831356,0.31872892,0.5917374,-0.16130418,-1.0835516,-0.56956923,-0.49909276,-0.7820065,0.6864687,1.03256,0.009619025,0.70529234,0.902852,-2.273905,-0.34728935,-1.0226423,0.85333323,0.11147976,-1.1305687,0.16005869,0.2828469,2.1463628,1.585625,-0.22462581,-0.16968812,-1.5945266,0.43304652,0.07538683,-0.42783716,0.5220561,1.1121314,0.16293295,1.1445347,0.78089094,-0.8625629,-0.11483505,-0.89627534,-2.676365,0.32824713,0.33528545,1.0145372,-4.5141335,-0.41030675,-0.093927234,-0.5020635,0.30991417,0.9937381,1.1709924,-1.8665205
-5.0940676,0.3620896,-0.6197376,0.9874238,1.697347,0.22821231,-0.4530953,0.24392703,-0.66101736,0.06815287,2.0789213,1.1423994,-0.6421119,0.6849198,-0.7557092,-0.4485992,0.2910456,-0.033774097,1.4141861,-1.0342407,-0.28072155,-0.62086004,0.029493045,0.7722011,0.35679838,-0.76872534,-0.32891363,0.8434285,-2.1100533,-0.65420616,-0.5300949,0.1359612,0.97125536,-0.12271805,-0.06944419,0.43008247,1.7483494,-0.05188785,-0.3690133,0.40032822,-2.591255,-0.40092537,0.056929972,-0.6996698,0.49601007,1.0041002,0.19998017,1.0632787,1.4795208,0.41169137,0.02086726,-1.1284792,-1.9876974,0.37895516,-0.14107,1.6146429,-3.4914653,-1.7010894,0.054196164,-3.7553258,-0.016153594,0.40007177,0.044839337,-1.8451741
-4.3072248,0.058348645,-0.24547699,0.8356705,0.18616754,0.22214404,-1.2896776,-0.42214307,-0.9953737,-0.052483372,2.1615534,0.32546487,-0.5971445,-0.22959894,-0.61708814,0.21065821,0.12423767,-0.30304816,1.9841506,0.34707797,-0.76465327,-0.25342712,-0.3239212,0.9976538,0.14343905,0.12793893,0.7279788,1.4314036,-4.5851817,-0.31018102,-0.21736942,-0.5168203,1.0366092,-0.20313317,0.26540726,-0.43091172,1.9671552,-1.1950928,-0.14135538,-0.11627599,-0.7843397,1.237546,-0.49959093,-0.81994903,0.31346074,-0.3428219,-0.5682975,-0.12376432,1.9258162,1.0862426,0.26319003,-0.538056,-1.0176758,-2.2108364,0.3370668,0.5939415,-1.4456583,-3.449104,-0.3464966,-1.6439396,-0.18136945,1.0364002,0.122375995,-1.7697961
-4.053518,-0.39092562,0.44512552,0.5298315,0.43179953,0.5781948,-1.060661,0.98643434,0.15952203,0.16162726,-0.44921774,0.7125967,-0.32321575,0.31591326,-0.09251823,0.95207715,0.113716416,0.10269235,0.5504173,-0.32594696,-1.0950034,0.465132,-0.51705503,0.46088588,0.21489015,-0.30120516,-1.0930611,0.17573974,-4.333386,0.022916397,0.1900052,-0.8867203,0.5803646,-0.21274231,0.3380004,0.19924884,1.3336476,-2.0571773,0.0742376,0.23737018,-1.7310214,1.8070738,0.29759002,-0.13334252,0.050477885,0.7429561,0.08814696,-0.51507056,1.2424883,0.28142855,0.44037986,0.020371012,-0.71063125,-1.5628684,1.3819684,0.9766313,-1.2975938,-2.9604175,0.21616553,0.022983912,-1.2402335,-0.023066252,0.35185117,1.2075301
-0.8030251,0.18663037,0.8667324,0.38133925,0.497077,0.67077607,-1.5076075,-0.10446936,-0.18999864,-1.1222564,0.38123438,1.0881903,0.58083916,-0.03405033,0.31833392,0.42263097,0.03789411,-0.4188249,-0.10888954,1.0514634,-0.61952645,0.85834944,0.37156552,-0.5401815,-1.0597208,0.29459035,-1.2006958,1.1292166,-1.8936329,-0.5483214,-0.23379023,-0.94427466,-0.80894613,-0.9529689,-1.5314701,0.6981495,1.711262,-1.9665757,0.3707083,0.9321066,-2.9875393,1.8599226,-0.44030398,-0.32161853,-0.77401894,-2.164091,0.4107287,0.11998503,-0.198212,0.51584834,0.76520526,0.65299803,-1.7822945,-0.1378678,0.24246396,0.011219426,0.35270566,-1.5451698,-0.10408627,-0.6790718,0.2130262,0.40412173,0.71528494,0.51665896
0.7180478,0.3928792,-0.30374473,0.6361405,-0.24286284,0.7640411,-0.17614515,0.7401565,-0.79189235,-0.31374374,-0.0119986925,0.9758858,-0.8404794,-0.52151906,0.35076377,0.3948078,0.73001933,0.17656407,-0.20359595,1.1055578,-1.9133797,-0.047937088,0.60441345,-0.8461117,-0.07263481,-0.36869904,-0.3585059,0.5637289,-3.74564,0.12655275,0.047999185,-0.9275577,0.20795219,-0.48486125,-1.4734781,0.10640592,1.7624348,-1.2924119,0.41819686,0.7992665,-0.08671787,-0.041349377,0.2131774,-0.13545264,-1.7060407,-0.7258719,0.8180473,0.14685537,0.44653288,-0.6887664,0.7278076,-0.18476853,-1.8363346,1.4727013,0.7286245,-0.20203179,0.38917714,-2.100315,-0.09642435,0.47665104,0.16770162,1.0321829,0.5495601,1.3909918
-0.13387902,0.011420469,0.53537005,-0.6131056,1.168814,0.22349578,-1.7950717,-1.1975496,-2.6514795,-1.1196029,0.028387357,2.2421308,-0.12234561,-0.51640236,1.5902916,-0.03478996,0.22041355,0.81788397,-3.8778758,1.2150569,-4.0782075,0.47924674,0.4028251,-1.7816113,-0.3475842,0.104555435,0.15472735,1.290207,-3.9854271,0.24426624,0.10014056,-0.49444383,-0.16367657,-1.457525,-1.2102984,-0.65362227,1.2628076,-3.194255,0.025912533,0.9895771,-1.9085367,-0.11905963,-0.03892975,-1.7583983,-2.4299142,-0.48079762,0.05005962,-0.19179226,-0.33630493,0.31363636,1.3047386,1.1056803,-2.5415363,1.2444762,0.46975428,-0.49703363,0.29677865,-1.1164187,0.84199166,-1.5016462,-0.6061315,0.41999123,0.50984746,0.29149848
0.2608844,-0.6736485,1.3797528,-3.054776,-0.4012223,-0.20090403,-1.2782648,-0.09125342,-2.4376657,-0.2916947,-0.6839585,2.5099394,-0.31342024,-0.30760363,0.8214482,-0.6355789,0.055391803,0.59700847,-8.647403,0.05331074,-1.4664487,0.6947307,0.025343398,-3.0004668,1.2978331,-0.00067285646,-0.4693846,1.62543,-3.8711822,-0.34114432,0.45979312,-1.3188308,-0.14132805,-1.6335132,-2.0736258,0.40881416,1.1810467,-1.1155576,-0.6060777,1.018222,0.05875153,-0.39368325,0.23683585,-1.7899443,-3.2024515,0.5761296,0.47576714,-0.35902,1.1927289,0.19333223,0.28250748,0.25655645,-2.5386715,-0.796157,0.3983084,0.5120915,2.7760057,-1.2247992,0.43424028,1.1214827,-0.49752545,-0.8156755,0.61454934,-0.46105042
1.1746732,0.028217487,-0.039989613,-0.22511658,0.100888655,0.47639817,-0.8683711,-0.35428125,-0.9940125,-0.8558429,0.23044321,3.5012927,-0.9378525,-0.8054495,1.4192193,0.56178504,-0.5402496,-0.9935686,-3.800831,0.27457193,-0.5464026,-0.6740323,0.0066732448,-6.7495265,0.8986875,0.03499981,-0.840058,0.9220842,-3.1138682,-0.26691753,0.5007296,-1.3452451,-0.48883566,-1.3461592,-1.7124876,0.04500335,1.2884364,-1.4428418,0.040275455,1.3003377,-0.4587397,-1.7232795,-0.09806776,-2.1599896,-1.4729311,2.5626736,-0.54326177,-0.64407915,0.3490161,-0.688159,-0.009707607,1.0249153,-3.7820783,-1.9619794,0.39987183,0.13646248,2.668442,-3.4381588,-0.15383634,-0.8425173,-0.6991613,-0.11465186,0.7958262,-0.98143417
-0.43978927,-0.05518111,-0.0146872485,-0.16325994,-0.11699792,-0.29607746,-1.8116895,-0.6675056,-0.27541587,-0.43505687,0.032412283,1.9606775,-0.36543965,-0.48316473,1.8317456,-0.43215206,-0.9555908,-0.19257209,-0.08108645,0.063603036,-1.4599073,-0.6203384,0.53482556,-4.424906,0.06578263,-0.24403708,-0.9103927,0.7204069,-2.3398433,0.26146832,0.466924,-0.5261687,0.6265378,-0.45219505,-3.0697212,0.6078757,0.99370104,-0.9278836,-0.41964716,0.40622362,-0.91240484,-1.3584124,0.3559162,-0.9209778,-2.642831,-0.6963286,-1.8476492,-0.34509918,0.35755473,-0.06169175,0.022093304,-0.24469902,-1.1473931,-5.2410984,1.0031068,-0.72403455,2.6842375,-3.1318061,0.9538642,0.053369075,-0.89427996,-0.65590036,0.05769755,0.35765657
0.42306086,0.04717199,-0.2869503,-0.089001074,-0.7098008,0.42496726,-2.3612592,-0.8073471,-0.6918134,-0.6228347,-0.21751675,1.3866074,-0.54815173,-0.108526,2.4894595,0.200029,-0.37687963,-0.49244857,-1.1706414,0.42240772,-1.8924792,0.88540393,0.2962153,-1.398554,-0.12092007,0.16692556,-0.4071496,0.93469805,-2.2591672,0.29894215,-0.27073634,0.51071954,-0.3566957,-0.22006191,-2.6486962,0.37691087,1.0720673,-1.3708724,-0.2064678,0.70973533,-3.2143664,-0.7811885,-0.7399343,-1.8773097,0.20244129,-0.9007232,-3.5771902,-0.33700404,0.3519238,0.35895792,0.15001705,-0.1224261,-3.8127837,-0.7066345,-0.018565333,0.48945785,0.3505871,-3.9931056,-0.630156,-4.1002383,-0.84624004,-0.43864354,0.65442896,-1.4201515
1.0727972,0.5553766,-0.6566773,-1.6938587,-0.91347945,0.3737564,-0.4333873,-1.0557986,-0.48883602,-1.007279,0.20949668,1.8811467,0.40765834,-0.0776506,0.8561469,-0.6381698,-0.048684273,-0.30222133,0.3066921,0.31166923,-2.8561478,0.39862448,0.27495712,-0.7262235,-3.2690067,-0.20788258,-1.5337398,0.30270353,-4.114842,-0.13301176,0.012758566,0.50158316,-0.6990959,-0.064773574,-3.4145453,0.9815741,0.96198565,-1.9147705,0.43698135,0.91652817,-5.3784475,-0.9627811,-0.6783584,-0.22398953,0.0045425673,-1.5512059,-4.6162276,0.322266,-0.4787726,0.12101193,1.4471862,-0.5712891,-5.284281,0.031055374,-0.09015186,1.5895134,1.2407391,-1.5481894,-3.5733879,-3.246257,-0.4269664,-1.0984265,0.65786,-1.0934024
0.40504014,0.0070415176,-0.06383719,-2.6185567,-0.35580337,-0.23073709,0.10121112,-0.2655221,-0.45296693,-1.2984983,-0.98116934,2.8248043,-0.5250445,-0.5042056,1.0363463,0.28630167,-0.23261516,0.36596352,-0.54473776,-0.10226451,-3.4642022,0.3344221,0.8023741,0.18397921,-6.3393,-0.81178766,-0.5599675,0.4270985,-4.463751,0.47355735,-1.2657206,0.12932658,0.011660709,-0.31326234,-1.7843909,0.4667244,1.0933679,0.24859497,0.93797696,0.759081,-3.330692,-0.7917818,-1.4122868,0.64358515,-2.2120128,-0.72770965,-4.808906,-0.8130711,-0.10507247,-0.02518648,0.4719343,0.5958301,-3.7402275,2.4308279,-1.5621035,1.3118911,1.7281092,-3.1036942,-1.2037694,-2.1715968,-0.4340978,-0.88892126,0.32533118,-2.126985
-1.2843803,0.09154343,1.2340636,-1.7102511,-2.71281,0.20677565,0.6853889,1.1248842,-0.2975943,-0.71216357,-1.0675081,2.0746348,-1.276104,0.76759166,0.22458933,0.11875792,-0.21815346,1.1686766,0.2065034,-1.0756501,-2.8278353,1.2154862,0.64920837,0.3334321,-4.4429903,-1.3617883,0.1670792,0.13252133,-2.7226865,1.594282,-1.1688412,0.6792112,0.96949184,-0.6544618,-0.79106474,0.5340196,0.90283746,0.42174307,0.2613985,0.29611418,-2.489752,-1.7122102,-0.9695511,-0.13594992,-1.540488,-0.55616134,-0.9457768,-1.826719,0.32313395,0.2018653,0.2538205,1.5483537,-6.7372003,0.7033813,-2.0594363,0.54237825,2.0083647,-1.6004174,-0.81112915,-0.023962097,-1.413898,-1.2931513,0.5471367,-1.8286542
-1.8929565,-0.11403328,0.73407227,0.0011056295,-4.73478,0.7681427,0.16869466,0.42194745,-1.2258872,-0.5992381,0.16143708,-0.4373145,-1.0015287,0.41658655,-0.67812186,0.64173055,-0.09583344,0.51039726,-0.07045162,0.19355047,-1.9875559,1.1940008,0.23661415,0.3912657,-0.20016536,-0.58341026,-0.8296694,0.19813925,-0.9775041,2.1060097,-0.9551581,1.3426076,0.30074155,-0.4483314,1.0673405,0.8254935,0.49387574,0.5402086,0.37037763,0.23292625,-1.7350069,-2.6823516,-1.5219074,0.4646423,-0.12941892,-2.2257373,-1.1298152,0.8761856,0.5172146,0.5119628,0.020128058,2.4590523,-5.6400127,-1.0849913,-2.6832643,0.10022487,2.120506,-0.65556693,-1.7803,-0.58589685,-0.50598073,-0.5630916,0.6174252,-2.3394356
-2.224077,-0.16245092,1.0162014,-2.2604115,-3.9607935,0.83481604,-1.4134585,0.39853525,-0.33776122,-0.80783314,-0.8448244,-1.7986312,0.44415984,1.4836094,-2.2671442,-0.8172611,-0.84471273,0.29435498,0.712312,0.057998367,-0.9409268,1.523593,-0.09121433,0.36037052,3.5166357,0.7162531,-1.2096255,0.8040301,0.33532262,1.9520096,-1.7191254,1.3590231,-0.07300055,-1.0983819,3.0986254,1.5034639,0.5986633,0.58319885,0.39512163,0.32929885,0.17662075,-1.259199,0.11850678,-2.8377647,-0.33474955,-1.6063579,-0.3004703,0.8701274,0.6166608,0.058820046,-1.5294522,2.5436854,-5.9929094,-1.8752902,-1.9370531,0.99575895,1.2198626,-1.3315296,-2.821222,-1.4900187,-0.49458617,0.13642932,-0.097434096,-1.5983945
-1.030258,-0.8020645,0.013848462,-1.4479194,-3.9833548,0.24737209,-1.6166997,-2.3851566,0.1858691,-0.8914122,-1.0063848,0.53637224,-0.16455407,1.3945928,-3.8308997,-0.6553305,-0.09376718,0.49457017,1.5282991,-0.65861374,-1.8425142,1.2139633,0.44494966,0.34489018,3.184264,0.48167866,-1.1530192,0.3952534,-0.043717545,2.057896,-2.113961,0.87514794,-1.7392483,-1.419244,2.2074656,0.83994085,0.8635199,1.9000925,-0.04615624,0.28121087,-0.27213505,-0.56052375,-0.21045087,-4.5937257,0.036110647,-0.9884697,1.1012715,0.84490013,1.5466912,0.21716008,-3.0932767,1.5345751,-3.8538256,-0.94219625,-2.6846893,0.16204083,1.1320266,-1.1861916,-2.570702,-1.0001651,-0.8020924,0.15841073,-0.11577883,-1.7072122
0.7297311,-2.807034,-0.79236794,-0.24468707,-2.1121519,1.2786107,0.47434372,-3.8816323,-0.7506958,-0.6249279,-1.5040154,-2.782458,1.9937072,1.3566873,-4.487927,-3.6912282,-0.35427126,-0.74544334,2.9751513,-1.0000794,-2.1939864,1.4351773,-0.35974005,0.11304564,3.082362,0.25820574,-0.23861824,0.8521443,-0.06316796,1.5877839,-0.6996429,2.0204027,-0.2710977,-0.2899879,3.2293434,2.420882,0.7757711,2.0393057,-0.052487057,-0.30635935,1.8277308,0.51404804,-0.6369538,-1.9517568,0.91265976,-3.231101,3.6853783,1.9151832,0.6324622,0.9536464,-3.1363728,2.070319,-6.472962,-1.3014787,-1.0146735,0.74346536,-0.55975753,-0.45719644,-2.8910184,-0.40348655,-2.011135,-0.30730563,1.2476792,-1.2960838
-1.730671,0.54983723,0.72439426,2.0858154,-1.4049666,0.6696501,-1.1825829,0.5022426,-0.1810915,0.66324073,-2.3245971,-0.03676331,-0.87338376,0.9910164,1.4483767,-0.90516615,-0.35481086,0.67513543,1.6748445,1.7104859,0.31518933,0.57226354,1.8856162,0.020041278,1.55722,0.38010418,1.8045862,1.7927599,-0.0058001895,0.82125705,-0.5901923,-0.66897064,0.9313961,-0.67215115,0.045583434,0.48563573,0.8862026,0.08148516,0.793699,-0.39386067,0.004897509,0.6517173,-0.33616793,0.68135965,-0.059533697,1.90396,-0.5492467,-0.5149602,-0.04738809,-0.502208,1.1745027,0.91894996,0.28782034,-2.0525908,1.4678489,0.46602073,3.2667751,-2.2196891,0.68354857,-0.93069524,-1.8967888,-0.2103489,-0.8549743,-0.39048892
-2.2393367,0.09339248,0.52289706,1.8037611,-1.8799871,0.7596615,-0.9726143,-0.22818972,-1.1019057,-0.5152408,-2.2447858,0.14480942,-1.5409213,0.7788266,-0.79687965,-0.18902232,-0.44348904,-0.2162458,1.3394406,1.233892,-0.30005577,0.16583198,1.5942675,-0.5574119,1.1115545,0.26406655,-0.781738,0.30457398,0.0440275,0.14941871,-0.68484455,-0.08849908,1.0736492,0.7397332,-1.332356,-0.45805612,0.22286643,-0.051139098,1.5991238,0.49753422,-0.051082224,-0.85789156,1.0836431,-0.63608366,0.33096084,0.4045126,0.36285022,-0.64444965,-1.0600873,-0.05693736,1.7103652,-0.51237303,-0.43706858,-0.21230651,0.138635,-0.6159761,1.9167328,-0.8019136,-0.38085097,0.14716998,-0.7566167,-0.16768946,-0.22739333,-0.8914005
-1.2310318,0.5259997,0.30786005,2.4440575,-1.2503953,1.1549226,-0.8304677,-0.27847928,-1.1164913,-1.775915,-2.448389,0.58977264,-0.54189116,0.5043709,-0.72385395,0.17375708,0.15344344,0.29263368,0.012242484,0.9815347,0.51157683,0.08164786,1.348178,0.4035096,0.5202006,-0.7542428,0.08223148,-0.5575522,-0.72680074,0.4273874,-2.5937314,0.86423063,1.1091975,0.33899206,0.3938876,0.20345885,0.5341874,-0.09366397,0.5467135,0.57054025,-0.06671729,0.17494579,0.9818957,-0.57577723,0.6047077,0.9063774,0.7949991,0.81948715,-0.9904491,0.66326976,-0.042124465,-1.0087347,0.16679558,-1.8441119,-0.26366794,-1.8114337,1.3289633,-0.032157823,0.075198345,-0.5364599,0.02134333,0.12065938,-0.7873039,-1.3247283
-0.4048271,0.21345846,0.36144736,1.2473317,-2.3626058,0.5061396,-1.1890367,-1.1386114,1.0009234,0.7837212,-1.9785578,0.36771038,-0.3493871,0.2989401,-1.2928777,-0.39873233,0.48879308,0.06747206,1.0086043,-0.06725097,-0.6762491,-0.1153024,1.06698,0.6030069,0.8990891,-0.18456706,0.02728647,0.42435074,0.5757334,0.68765664,-0.23134664,-0.09738588,-0.6733033,0.92268467,-0.122403234,-5.0121517,0.032264683,0.16337803,0.280116,0.39726385,-0.20293112,-1.1061056,1.3021966,0.32321602,0.53460014,-0.9700252,0.5552658,-0.9459011,-1.206408,0.3239755,0.877787,-0.17149037,-0.002866354,-2.0061445,0.44604567,-1.4879597,-0.17873351,-0.45648453,0.54622984,-3.0628066,0.7817658,0.21943235,0.5453079,-0.15952003
2.901389,0.80084646,1.0388855,-2.8530867,-1.2023727,0.42583323,-0.17117634,0.5937576,-1.0706822,-0.29880375,0.757433,0.30487224,0.26333684,0.2977979,-1.4218789,-0.07271151,0.5518728,-0.31335533,1.960396,-1.7253505,-0.7429736,-0.107440025,0.25913998,-0.1284842,0.3907436,0.30947503,-0.44307452,-0.24129823,-0.56203127,0.44333315,-0.6608003,-0.046925165,-0.47604653,-0.014208052,0.062651776,-3.6886837,0.5784719,2.0987692,0.372872,0.35164595,-0.19997826,-1.4487376,1.2237078,-0.12704296,0.32240078,0.06962121,0.47985858,-0.10765046,-0.8319443,1.2191433,0.9829946,0.116153665,-0.3181029,-1.5198475,-0.12214655,-1.4280525,-0.6144569,-0.6579615,0.41228902,-0.6359205,0.09716899,0.627721,-0.038679656,0.20037237
0.88014424,0.5956845,-0.46151182,-2.7585266,-1.0070249,0.42053893,-0.16978607,-0.5893003,-0.4659676,0.4994616,0.02117704,1.0962006,-0.5439666,0.1700924,-2.160817,0.26012617,0.59477735,-0.011789845,0.7186536,-0.13329087,-1.2891047,0.13723156,0.5310139,-0.11242263,-0.9291562,0.39915076,0.39074194,0.30652648,0.029847657,-0.017445462,0.9501579,-0.6248144,1.4985148,0.054305498,-0.090367645,-1.3515598,0.86939204,1.6593782,0.08851443,0.8998687,-0.21516262,-0.7481026,0.9063126,-0.22242115,0.30089334,-0.30850783,0.9355744,0.38773414,-0.17018278,0.5608461,1.379387,1.4901167,-0.12300771,-1.8039365,0.21937607,-1.7453158,0.07272694,-0.6276081,0.050314404,-0.024808945,0.65838945,0.95355606,0.67632025,1.0577571
-0.49698603,0.08259388,-0.11820454,-0.22318721,-1.722533,1.3930727,-1.0732921,-0.5987035,-0.6071207,0.99982196,-1.2265358,0.49857512,-0.375453,-0.059360236,-0.1577368,-0.37003416,0.018798953,0.2832586,-2.6398234,-0.9142361,-1.5833248,0.8674152,0.7078065,0.6768927,-0.9051516,0.027567824,0.74945384,0.0012371442,0.5694759,0.14528954,0.059067633,0.21084218,0.22000928,-0.33582437,-0.21129869,0.156995,0.696366,0.39867222,0.0913455,-0.52003354,0.43857467,-0.42712802,0.24865669,-0.72540236,-0.7570736,-0.0007044941,1.7474874,0.4417195,-0.28092575,0.23996566,1.1012105,1.1601033,-0.5193503,-1.3197069,0.2662522,-1.0429912,-0.070161596,-1.0231224,0.29406872,-1.319977,-0.37213674,0.95624804,-1.0472573,0.47745308
-1.7316847,-0.31321412,0.7178548,0.428786,-1.6868321,-0.12812537,-0.49435174,-0.024423067,0.4978959,0.24729139,-1.3609358,0.022703202,0.22556329,-0.95380205,0.74878526,-0.020739455,-0.3752469,-0.13868415,-2.5041528,-0.64852667,-2.0421152,0.15516065,0.7996016,0.87715983,-1.4230527,0.6162436,0.5203158,0.087434106,1.2048773,0.020062963,-0.25585574,-0.60552853,0.6379162,0.48795357,0.3022787,0.80251354,0.17851979,1.0279924,0.27989858,0.23641486,-0.5367696,-1.4177468,-0.1530158,0.17189604,-0.16957207,0.7359513,1.065639,0.45381698,-0.63544875,-0.5476938,0.5789848,1.232023,0.074460186,-0.13391322,0.8030404,-1.2466226,-2.119508,1.659854,-0.43555892,-0.23714842,-1.5112181,0.38279772,0.15262981,-0.15238902
-0.67661697,-0.19296294,1.2047929,1.0884665,-3.1296918,0.491548,-0.039042562,-0.11449233,0.015616877,-0.19943772,-1.5685257,-0.22277613,-0.97214437,-0.8837046,-0.18136755,-0.15752843,-0.0041080234,0.20644982,-1.5887518,-0.08389599,-2.1890428,0.008967139,0.42241132,-0.41651136,0.0055977125,0.28604004,1.2945367,-0.4784898,1.3612626,0.29111987,-0.2764641,-0.9963671,0.330223,0.15085422,0.026852338,0.2569099,0.5837451,-0.38675454,-0.44733572,0.11642841,2.0778725,-0.6534278,0.7080842,0.28293216,-0.09020568,0.96655136,0.6123601,0.57533,0.34490559,0.5348134,0.91247237,-0.547267,-1.3799654,-0.68000877,0.38105625,-0.41956434,-0.79061306,0.49843714,0.3029556,-0.51460034,0.50085825,0.42676952,-0.80785125,-0.79840463
-0.44915527,-0.18004756,-2.2140915,0.2380372,-1.8103025,1.4453355,-0.455801,-0.7896459,-1.7223734,0.4391372,-0.8634602,0.30182043,-0.33591947,-0.15030207,-0.15149964,-0.71763134,0.42331153,-0.017989522,-0.5261404,-0.64969,-1.9462222,-0.32734376,-0.6471922,0.42829064,1.4237674,-0.12113251,0.45153698,-0.7301281,1.0838481,0.2901445,-0.5695549,0.031949896,0.4982555,-0.026286637,0.6915003,0.32069576,0.28919828,-0.19142471,-0.5748503,-0.17776284,-1.2214001,-0.71121585,0.7018774,0.14246906,-0.700979,0.1407409,0.46878794,-0.14225076,-0.78714657,0.5354799,0.09889912,-0.54867226,-0.49858186,-0.6030948,0.046494424,-1.3989125,-1.2942193,-2.8605993,0.45709345,-1.3411454,0.3104221,0.792037,-0.31027126,-1.3748133
-0.944603,-0.09169005,-2.2066185,0.81082016,-1.1507429,0.5718755,-0.0155760655,-0.5199228,-2.4051406,0.3894138,-0.5043634,-0.26614302,-0.30150566,0.25970802,-0.15799347,-0.47630444,0.9644717,0.43661502,1.3126793,-0.17281856,0.08995808,-0.27816316,-0.84397084,0.6797088,1.49782,0.31859025,0.89838105,0.09797827,0.537395,0.86934805,-0.28942743,-0.11680516,1.0010971,-0.7299757,0.37888893,0.6177771,1.5078871,-0.16246817,-0.3318194,-0.44419438,-1.7889762,-1.3693736,0.2937258,0.026099898,-1.403914,0.27214074,-0.061064698,-1.4947064,0.519472,-0.40183863,0.66284937,-0.039513964,-0.47519186,-1.4329733,-0.1499577,1.2966628,-5.5637784,-1.6372067,-0.2305364,-2.5747423,-0.4501846,1.389075,0.5864079,-0.65225077
-1.3727415,0.6156322,-1.0773237,-0.29466993,0.39265695,0.71811783,-0.61152935,-0.56706285,-2.29577,0.30946857,-1.7316153,-0.114254735,0.1374541,0.00047300628,0.23372675,-0.6181209,0.78627306,-0.122631595,1.3082677,-0.26190686,-1.1414822,-0.19243166,-0.22278671,0.36881563,0.8685538,-0.030438086,0.637271,0.29107845,-1.0166504,0.1930188,-0.38929105,-0.53603065,0.8737156,-0.034972202,0.36345387,-0.31180468,1.6176436,0.73384,-0.3122357,-0.014827223,-0.050140887,-1.1989394,-0.29919207,0.40173772,-1.7060217,-0.3391936,0.8729251,-1.3226122,0.52848536,-0.23364645,0.46692893,-0.6328008,-0.5084075,-0.3257944,0.28776756,0.5135038,-3.3547153,-0.3696151,0.24278225,-0.4366002,-0.31369013,0.7117536,1.1248881,0.42585546
0.17643632,0.72542775,0.16521008,-0.89081496,-0.09454797,1.906255,-0.58854437,0.90756404,-1.2841071,0.034279674,-1.6416475,0.792643,-0.6202895,0.31944236,-0.076714836,0.36754996,0.2560741,0.08224357,1.3098928,0.07814343,-0.9364398,0.4558656,-0.2970447,0.13223778,-0.7488237,0.37634027,0.46581,-0.63189894,-0.1576591,-0.115285195,0.10171535,-0.18388148,0.39689252,0.109093904,0.92795,0.13513134,0.8112491,-0.5471195,-0.042568672,-0.028782532,-0.27940175,0.5706326,0.48895013,0.78719026,-2.4440393,-1.6676687,0.569135,-0.96532553,0.60835356,-0.046924252,0.42161462,0.26876247,0.19475101,-0.10069442,-0.413715,0.9283264,0.044162855,-0.920464,0.30413413,0.63822305,0.51658994,0.17553836,0.29967374,-0.324258
-1.570003,0.7826406,0.6032913,-0.59229726,1.3918617,0.779804,-0.8373734,-0.8637702,-1.0968765,-0.3321705,-2.8749616,0.22591226,-1.0552869,0.20196496,-0.0869904,0.37517416,0.6512254,0.056285016,0.39239672,0.47088718,-1.7644107,0.41298902,-0.59054095,-0.035114773,-0.08835893,0.009012622,0.53315777,-0.1752315,-2.207461,1.1229693,-0.14547366,0.053932607,0.21674658,-0.24513729,0.9830231,0.41719127,1.1850829,-1.0206213,0.52471906,-0.11066669,-0.81849146,-0.61942023,-0.112426005,0.017746424,-1.6069683,-0.80125564,0.2676327,-1.5823172,0.1250098,0.38250375,0.951422,0.2850057,1.1213981,-0.68372524,-0.07580362,1.0998707,1.4352493,0.8074379,-0.019118162,-2.0212972,0.25806862,0.833602,0.9479779,-1.3878741
0.8824805,0.3758183,1.3048608,-2.1253653,1.0463626,0.6184335,-1.3003788,0.14677705,0.6291561,-0.6523235,-3.2072883,1.2886311,-1.3148308,-0.11260006,0.9035243,-0.22086895,0.7704586,0.054521624,0.7600053,0.6398098,-2.0883439,0.52119374,-0.51931477,-0.28433383,-0.31767136,0.024362952,0.54644614,-0.47727245,-2.462235,0.37507218,-0.20740719,0.15898043,-0.08751916,0.12906154,1.4906098,0.54891145,1.5133215,-0.2780589,0.76880723,-0.4267942,-1.1790068,0.43685338,-0.35367942,-0.2726223,-2.5928853,-1.5624046,0.4355121,-1.3119221,-1.2561454,-0.3271069,0.36135587,0.97734565,0.525375,0.06509655,0.0995549,-0.29486167,0.7902457,-0.355724,0.28838867,-0.64713866,-0.27559394,0.2681232,1.9423172,-0.13051519
0.320047,-0.15252087,1.3139361,-0.91689855,0.21789722,0.66526276,0.3514382,0.4886839,0.29799622,-0.8727278,-1.2696489,0.56064713,-1.3214645,-1.4744081,0.18483123,-0.06003307,0.66582555,0.20426482,2.1410222,-0.19035578,-1.7270086,0.9990539,0.030033607,-0.25350973,-0.3139163,0.18184151,-0.0007539523,0.40204144,-1.6345886,0.42442614,0.22585413,-0.15560845,0.17649367,-0.4551907,0.4466798,-0.41362616,1.2157372,-0.5914999,0.25980783,0.16905357,0.44284546,0.12378761,0.59537107,-0.6045495,-2.5138218,-0.52380913,0.6202126,-0.5492247,0.1649417,0.2568839,0.76371616,0.60946953,-0.08498001,0.058234576,-0.34138054,0.93329,1.689272,-1.0955329,0.3664486,0.6398094,-0.33510685,0.3067032,0.37574282,0.14344394
0.7412501,0.44736534,-0.71454924,-1.8354502,-0.4839454,0.6208521,-0.09264151,1.0953844,-0.094522364,-0.23261498,-2.1222594,0.6953895,-0.7301545,-0.8536184,1.068479,0.33975685,0.69419104,0.37483135,-4.9793124,0.23191784,-3.1810417,0.44444364,-0.30025354,-0.61491996,0.54150283,0.2647363,0.35120162,0.52666456,-0.9547833,0.06931867,0.86915433,0.042642586,0.72303665,-0.7418054,-0.1836191,0.5082384,0.7452756,-5.6657624,0.009139475,-0.028646465,-0.034345895,-1.3217119,-0.39632115,-0.42051834,-1.9475491,0.081413575,-0.015472148,-1.8250396,-1.1303017,0.03373576,0.49473223,-0.043800097,0.22001958,1.4615582,0.49593893,0.4184907,0.3654443,-0.89083666,0.42590207,0.5161513,-0.41297212,-0.23032506,-0.49940556,-1.3199669
1.2805293,-0.4994536,0.36037162,-0.5154122,-0.35021925,0.27077997,-1.3680598,-0.024894768,-0.49999732,-0.54606247,-0.57003266,0.32816133,-0.26217085,-0.21608667,0.90824294,-0.058779392,0.43458945,-0.28191736,-3.1620605,0.07466736,0.04917508,-0.120868236,-0.23235424,-0.880549,0.6594245,-0.3720273,0.20582926,0.4935067,-4.0755315,0.26708046,0.3348708,-0.35402697,0.04437741,-0.28706658,-0.44050246,-0.07604859,1.675683,0.20517956,-0.43732968,0.20543197,-0.62206924,-0.55072653,0.18993206,-0.79899114,-1.8252453,-1.0364065,0.13255057,-1.0584183,0.24633181,0.07699124,-0.808154,-0.8124163,-0.9759393,-1.2921616,0.2597563,1.0068687,1.3413235,1.1413871,0.17035449,-1.3922737,-0.38255298,0.5787,0.11812518,-0.62413484
1.0226384,0.23126043,0.66304773,0.9700312,-0.20634231,0.37233216,-0.60399336,0.39590394,0.39793506,-1.1380326,-1.4099461,0.03834198,-0.19007818,-1.8538864,0.21771857,0.3851876,-0.2922418,0.06057606,0.06304097,-0.39005968,-0.38618395,0.5615504,0.039395396,-7.517298,0.8899126,0.074874796,0.6479391,0.60900795,-2.2136114,0.08509365,-0.40568912,0.08697267,-0.46573743,0.51161915,-0.53857106,0.41279933,0.5894893,1.116853,-0.16524537,1.1070368,0.7013349,-1.1081052,-0.0073738648,0.353685,-1.2985029,-0.23385277,-0.66876733,-2.120832,-1.0279002,-0.14633092,-1.126436,0.12973927,-0.6750082,-2.131092,0.25172964,0.49653295,0.97501683,-1.0301468,2.1248078,0.3375254,0.00879799,0.05362708,-0.058682192,0.017344002
-0.3249674,0.8739287,-0.019518152,-0.04792703,0.6162349,0.052165676,0.7151903,0.49594554,-1.5852712,-0.5040564,-0.5258497,1.6003965,-0.13298151,0.062348984,0.7598891,0.4644751,-0.2627002,0.030060425,0.24789636,0.15568203,-2.643446,-0.089219466,-0.4358549,-4.016869,0.57644105,0.729262,0.3162157,0.52095854,-1.2000391,-0.8154322,-0.22064915,-0.04445842,0.10856551,-0.66089946,-1.4973601,0.08891535,-0.4212057,-0.6249985,0.12232158,-0.062672906,0.5064554,-1.0147458,-0.22300638,0.6813473,-1.2220726,0.4533424,0.5248488,0.27177662,-0.24817993,-0.45576623,0.10044809,-0.7821979,0.1322685,-2.742613,0.50356895,0.27722064,0.18417807,-1.6105338,-0.42922693,0.6782262,-0.2140253,0.3363735,0.2074649,-0.58240026
-0.4857853,0.35495228,0.42775378,-0.79409707,0.64299035,0.2848253,-0.884487,0.96622044,-0.62838054,-0.62702,0.31131807,0.78135794,-0.4487707,0.41583794,-0.9535228,0.325219,-0.4238721,0.30568567,0.45347393,-0.1391226,-0.6957728,0.8374607,-0.11735808,-1.0294244,0.26536474,0.23117322,0.36459717,0.4496744,-4.3546195,-0.13851789,0.64685833,0.10054983,1.0194147,0.6453794,-0.48718998,0.5304911,0.6677874,-0.51036185,-0.6232428,-0.2589672,0.409174,-1.7771459,0.63771117,0.44599196,-0.29295403,-1.6068976,-0.5002054,-0.29933003,-0.6309024,-0.0129891,-0.30452734,-0.37429318,-0.4940522,-0.8280513,-0.36334556,-0.5540746,-0.36549613,-0.539891,0.18614288,2.494156,-0.26753163,-0.55778027,-0.3379865,-0.7749908
0.21642013,0.0022187943,0.05192238,-1.9700605,0.33546856,0.6699778,-0.07560167,-0.84353566,-1.0260997,-0.5552336,0.9315473,-1.3989723,-0.22199795,-0.17111295,-0.33894083,-0.20656182,0.13776761,-0.24706133,-0.04786577,-0.18599619,0.899547,0.11674346,0.6318435,-0.74054533,-2.194662,0.03963649,-0.53809196,-0.19228348,-2.3461573,0.52738506,-0.54289335,0.22060482,0.19949909,-0.074642844,-2.6900187,0.821152,0.4373202,0.09940436,0.33747843,-0.084308416,-2.8789327,-1.9103701,0.28629863,-0.09882757,-0.15633915,-0.6486782,-3.2094753,-0.75047195,-1.8820043,0.10354821,0.49378678,0.20212534,-2.2279491,0.3402852,0.16003376,-0.16291915,-1.1373711,0.1627748,-0.8738334,-3.3344808,0.17582542,-0.6802533,-0.09008677,-1.5105896
-0.457528,0.82264906,-0.5715404,-0.9479476,0.6253666,0.15254587,-0.54425776,0.7404899,-0.38390866,-1.3451532,0.36800826,-0.83840334,0.24704285,0.10963701,-0.4521677,0.91973126,-0.12589821,0.691689,-1.0474118,-0.42910406,-0.25546268,0.78381073,0.22964354,-0.32306072,-2.9819918,0.2963689,-0.60123813,-0.0791123,-2.275118,-0.6640314,-0.48707306,0.8629241,-0.04121048,-0.7624189,-4.159734,0.3900085,-0.51757145,0.73484015,0.5198334,0.45165634,-2.1525679,-2.9539554,-0.013270899,0.75155044,1.4221758,2.5842135,-1.0916855,-0.44028613,-0.83211714,-0.07469393,0.4239793,0.30371836,-0.5662057,1.0492082,-0.10318752,0.300277,1.340806,0.51286054,0.0024241148,-4.1914263,0.3107289,-1.3445473,-0.37791914,-0.5776246
-0.68646467,-0.21766989,1.1653552,-0.1429189,-0.18171893,0.10143716,0.08654092,1.1581669,-0.06698955,-1.3348129,0.46751297,0.1751663,-0.4691628,-0.49112073,-1.2253447,-0.3635448,-0.018234255,-0.2265866,-0.040178012,-0.8870937,-0.010396212,0.915949,-0.10070023,0.45543087,-2.5983775,-0.2535815,-0.15249507,0.1583294,-2.0137722,0.8431766,-0.5475484,0.58204806,0.08196449,0.14421864,-1.8317555,0.36980668,0.39511392,0.9980331,-0.03904068,0.22031721,-2.8439674,-2.5692616,-0.22632612,0.19589159,1.4293444,1.7385598,-0.9111627,-0.1515222,0.09667746,0.36102903,-0.008922203,0.51282364,-0.41890416,0.42616326,-0.8009337,-0.41436556,1.7900852,0.7811238,0.6873921,-2.74704,-0.38396698,-0.07500024,-0.128837,1.3791939
-1.0477883,0.0322755,0.08255075,-0.018025681,-0.60563123,0.3856748,-0.16465521,1.3927877,-0.8585285,-0.85898876,1.1513273,-3.5723994,-1.4298806,0.9901975,-0.7289667,0.23758794,0.17885935,-0.07032762,0.8772082,-0.31024346,-0.94292134,1.3580548,-0.14674607,1.1407487,0.5740783,0.7112382,0.60787493,0.16627382,-1.2305777,-0.8369529,-0.6596393,0.3408089,-1.0901967,-0.02401592,-1.8317896,0.47707862,-0.41707638,1.0677835,0.6607623,-0.19376916,-0.59529626,-1.6399662,0.3788667,-0.2614303,0.69301206,-0.013072322,1.3344921,-0.30202472,0.3723226,0.3574911,1.0379449,0.8004488,-2.2833796,1.4365877,-2.2378597,0.39223024,0.8366483,-0.61048716,-1.4323385,-2.5090463,-0.27924424,-0.96526766,-1.1054517,1.1004856
-0.48737282,1.097729,1.5099422,-2.4564788,0.3380429,0.2661961,-0.16839577,0.96297246,0.12469102,-0.6534261,0.70674103,-3.8084095,-0.56676555,0.5294812,-0.61800843,0.023758372,-0.08018886,-0.2351336,0.2090664,-0.14907494,-0.8980921,0.79925096,-0.088361874,0.29389387,0.9131216,1.0145681,-0.5122365,0.48386934,0.16914183,-0.7106431,-1.0551865,0.8083865,-0.91946524,-1.1233972,1.1323099,1.6681573,-0.71512556,-0.22489335,-0.057219453,0.72326314,0.020550936,-1.067936,-0.27617595,-1.1797261,0.10055668,-0.45293984,-0.58356726,-0.2954797,0.41644245,0.018097587,0.55503315,1.384795,-0.67783886,0.48621684,-0.6165165,0.97014797,0.8900813,-0.4572638,-2.6645947,-1.7199033,-0.40338546,-0.8908603,-0.4278265,-0.470852
0.5455255,-1.3767028,-0.11147983,-1.0198267,0.39774022,-0.13760065,-0.048706878,-0.1009165,0.036861956,-0.80557066,0.1278014,-1.8228453,-0.86995804,0.85285556,-0.7138917,0.6937742,-0.49819872,0.3239588,0.67899275,-0.12716767,-1.691812,0.7095524,-0.41634068,0.24173594,1.3427974,0.7230341,0.49385867,0.9058094,-0.05549763,0.034941226,0.1896055,0.63853467,-1.451863,-2.0872629,2.0022297,1.795148,-0.3767215,-0.10610786,-0.51018494,0.19644344,0.3638649,-0.46021155,-0.54771286,-1.1596702,-0.26524407,0.3331409,0.25402302,-0.06717059,0.22940801,-0.0058996063,-0.66352874,0.086208664,-0.33688334,0.355956,-1.1659771,0.28856698,0.7367832,-0.47702986,-2.8925016,-2.3285878,-1.3508073,-0.7452462,0.1323671,0.4357705
0.9238727,-3.1224012,-0.4825298,0.13723245,0.64340246,0.20729454,-0.051226232,-3.3500805,0.08375208,-0.75562483,-0.35645586,-2.9987447,0.80042696,-0.014355579,-1.1757536,-5.3440742,-0.33872315,-0.047624692,0.95591336,-0.0037226856,-3.0207293,1.0054477,-0.2906785,0.3448503,0.12866475,1.5253884,0.4525173,0.2590389,-0.046499666,-2.3499424,-1.1819113,1.6723565,0.17832112,-1.2405854,1.6137533,1.843537,-0.009958842,-0.47039074,-0.46310642,-0.78822064,1.7718318,1.4850407,0.2757041,-0.75706995,1.1157444,-0.962053,1.7896636,1.1621041,-0.24734831,0.9902689,-2.026977,-1.4626709,-2.8976998,-1.8414991,-1.3001109,0.24537537,-1.4202119,-0.39990684,-3.4781525,-0.25866276,-1.1820686,-1.2642201,0.0018886356,1.439439
-0.5713773,-0.12043879,-0.015900124,2.3051713,0.9383823,-0.9684683,0.107455686,0.5645071,1.2171826,-1.3004538,-2.7740285,-1.045538,-2.60619,0.75039077,0.9404721,-0.5471655,0.8474734,-0.69175386,-0.28544888,1.2959725,0.3225243,-0.16039747,1.6226267,0.9174876,1.5107956,-0.4679452,0.8878045,-0.0074216635,0.30152202,-0.3935568,0.9424644,0.69229585,-0.1392655,0.30104297,0.5807483,1.1521891,-0.7894422,-0.0038382262,-0.70965964,0.67734754,-0.5958524,-0.538386,-1.3988484,-0.3250943,0.10261988,0.6963373,-0.6329091,0.5618294,-0.67216414,-1.4259704,-0.2923741,1.4199939,1.3019848,1.0208938,0.33906823,1.0005239,2.0984135,-1.1977396,-0.7801368,-1.4468973,-0.62268287,0.3897648,-3.1366348,-0.08449289
-1.8465997,0.28535283,0.14037405,0.40353695,-1.635242,-0.24782413,-0.47091243,-0.43474513,-1.3354765,-0.48168275,-1.6201986,-0.63288456,0.14808926,1.1766361,-0.8665858,-0.73056495,0.26866227,0.16697733,0.2542439,0.3407273,-0.22648884,0.47338226,1.1783366,0.22741632,-0.35209748,-0.24164182,0.019373937,0.5107356,-0.8935545,0.9305529,-1.6885818,-0.009318643,0.8764629,0.57514495,-0.2806989,0.830154,0.6105659,0.023999728,0.33737195,1.0137442,-0.68696207,-0.9911703,1.3111787,-0.6447446,-0.038943302,2.0990014,-0.34842533,0.25351378,-1.9596537,0.59206396,-0.7861913,-0.97485167,1.2359821,-0.34181014,0.02811511,0.55618536,-0.3489318,-0.22365518,-0.06772132,0.11258663,0.3061683,-0.30480647,-2.717786,-0.025926575
-2.93663,-0.24168578,0.17382333,2.3089366,-3.9771562,0.20407432,-0.18078902,0.21921112,-0.51778066,-0.28859046,-1.605952,0.29902384,-1.2937336,-0.0074845674,-0.56185514,-0.28394416,0.21498828,0.6938692,0.38065097,0.9926051,0.42940587,-0.13515738,0.7020107,0.5769441,0.55708414,0.509855,0.28963283,0.106022194,-0.3964096,1.247133,-3.442415,0.13638474,-0.7429123,0.5497541,-0.25064087,-0.24046272,-0.0019548496,0.52574027,0.383714,1.0265005,-0.3456508,-1.070024,0.5226264,0.14013955,1.1278042,0.92706525,-0.9829038,0.21205632,-1.6042148,-0.16805603,-0.3113471,-0.5045041,-0.42708504,1.0564306,0.022390418,-1.0518199,-1.5188245,1.0622343,0.33365673,-0.18463247,-0.39108697,0.3906826,-1.025382,-0.489178
-2.7166924,-0.14390309,1.0455616,-0.76730865,-2.8447812,0.1352916,-0.20963389,0.9172071,0.10848374,0.16725953,-2.711317,0.6298231,0.82172954,0.75382006,-0.50001734,-0.8497867,0.045268357,-0.23180385,-0.6652723,-1.3502522,-0.550121,-0.59868854,0.27976164,0.98009855,0.77428234,-0.2155054,0.6917011,-0.6691467,0.49106044,0.7465961,-0.47298318,-0.18074709,-0.681511,0.7079486,-0.42041782,-4.6828966,0.09506419,-0.2793889,0.4614104,-0.22272488,-1.41803,-1.4302348,-0.44784334,0.667317,1.0503622,1.7493756,-0.41711232,-0.541086,-1.4335082,-0.95692176,0.100636214,-0.35775426,1.0457604,-0.30511996,0.3798581,-0.34223837,0.13332194,1.3014108,-0.45457286,-1.9347813,1.0261548,0.2518652,-0.9999892,0.83231485
0.347348,0.62922376,1.1584591,-2.3070757,-3.0449786,0.36236435,0.25315174,0.2114862,-1.0956906,-0.5136521,-2.6035776,1.1358954,0.5037032,0.74051875,0.39311123,-0.298351,0.6241326,-0.034063835,1.6816097,-1.1029829,-2.763318,-0.6450032,-1.1076685,0.13358161,0.6387326,-0.00787058,0.89164513,0.13920636,-1.1503866,0.24243426,0.98595864,-0.18604885,0.7304363,-0.50648516,-0.3097389,-1.8436052,0.9458517,1.8198956,0.25790215,0.24173553,-1.0416011,-1.2216678,0.16688496,-0.3062496,0.14491698,-0.42428684,0.9527363,-0.9907505,-1.6106522,0.4656613,1.5542295,0.22230951,-0.99138844,-1.6120095,0.50362045,-1.0963753,0.09272982,-1.7229266,0.7528591,-1.5612087,-0.18220374,1.6486866,-1.8094332,0.056326635
-0.16771027,-0.4725192,1.1540045,-1.4193531,0.5564808,0.5393277,-0.32538277,0.10627651,-0.41031075,-0.50879264,-3.7374456,0.5695239,0.7343056,0.66577405,-0.9293448,-0.39250788,0.6301158,-0.29308227,0.091485575,-0.44695976,-2.350008,-0.011874696,0.3499024,0.23335303,1.0454128,0.6679952,0.33220947,0.743465,-1.1877611,0.32595342,-1.2129539,0.6355039,1.2822547,-0.9225494,-0.13105978,-0.8051484,0.20273222,-0.44562387,0.7814185,0.24851894,-1.4750632,-0.6192334,0.41689724,-0.685388,0.79722106,0.6737594,0.5675417,-1.1694676,-2.6818645,0.17456235,0.86959356,1.1840107,-0.36361492,-0.77157044,0.1966391,-2.2904267,0.5228478,-1.0054497,0.6686733,-1.9549308,0.11272319,1.0081104,-0.27865577,-0.9164133
0.86071074,-0.3839593,0.7546663,1.3649818,-1.5757362,1.2962539,0.17557523,-0.18739899,-0.6877106,0.13470896,-2.2104971,-0.09812304,-0.23766151,-0.0790388,-2.154797,0.18823661,0.97128254,-0.18801443,-0.080346875,0.1392326,-3.0940757,0.50804293,-0.07085753,-0.104939036,0.10421147,0.25462303,0.8587452,-0.35040447,-0.8486926,0.69805086,-0.56077754,-0.35667327,0.50872475,-0.09760508,-0.4193698,-0.34949443,-0.4353802,0.6561133,0.541846,0.87032133,-2.0883331,0.06030458,0.37108728,-0.83090156,0.4705091,-0.44846952,0.48428637,-0.24760881,-2.4525845,-0.30665934,0.67143023,0.9517716,1.0333817,-2.2182505,0.5600111,-0.4996689,0.9141321,0.25779867,0.6112467,0.41816774,-0.6226478,0.71745586,0.17993805,-1.7518438
-1.0878024,-0.0807373,0.5362692,1.8198082,-3.128157,0.30102703,0.37809333,-0.078360304,-1.7333968,-0.57314813,-1.7433887,0.34215006,0.5424945,0.28675652,1.3341035,0.24802487,0.6813924,-0.18724023,-2.8622625,0.11241157,-2.522421,0.47347006,0.4497599,-0.72426736,-0.06292843,0.41830117,0.6345922,-1.6261184,0.55389404,0.17402712,-0.7238259,0.0963659,0.450657,0.354225,-0.31194723,-0.06916821,0.22875871,-0.53913444,0.508521,0.12513047,-2.6781726,-1.0714974,1.7974671,0.9299485,-0.52913725,2.3770769,0.027655257,0.44651413,-2.6944554,-0.42438343,0.7269813,0.1809446,0.36381513,-2.5484536,0.59581614,-0.21404158,-0.20748,-0.027393578,0.7123859,0.44274575,-0.4428345,0.21975972,-0.69532144,-0.6190757
-0.115691334,-1.0242682,-1.2468724,1.2113656,-4.296115,0.723133,0.46351993,0.3127499,0.013938084,-0.2112873,-0.14488299,0.106268235,0.28291857,0.5965848,-1.3931419,-0.06515272,-0.18767303,0.3982173,-1.2111837,-0.20410031,-0.5088837,-0.42284706,0.19248617,0.48499152,0.3727382,-0.08662409,0.7617849,-1.6688209,1.4696103,0.5288685,-0.066843145,-0.7499936,0.25980192,0.36150315,-0.39895976,0.34297282,0.17194216,-1.4673738,0.47255832,0.42761242,-1.0325015,-2.3758967,-0.60448265,-0.27033368,-0.08677566,0.19749357,0.029292524,0.73334527,0.12060025,0.26296145,0.25150466,-0.04360454,-0.053569537,-0.84747,0.012727144,-0.2792192,0.020471616,-2.1527002,-0.30150318,0.57579106,-0.6802455,1.1697608,0.41246647,0.52694744
0.05469911,-0.4311498,-1.5475534,1.7078586,-2.8678493,0.49875474,0.21886113,0.240802,-0.48082927,-0.5433797,-3.0547054,0.6373617,0.023516206,-0.057856657,-1.3682034,-0.14760073,0.12014744,-0.32189363,0.10016415,0.00029192364,-0.8456178,0.12791114,-0.30405748,0.087845005,0.9341983,0.47433236,0.772791,-1.9443161,1.9802374,0.6542632,0.01260427,0.3217929,-0.12160808,-0.13683811,-0.6697028,1.2826478,0.76608604,-1.2033029,0.56681174,0.03180712,-0.8201327,-0.03105282,0.43949056,-0.16305229,-1.9273168,-0.0011338468,0.3835836,0.12913838,-0.69090044,0.33607417,0.12977867,-0.77229124,0.1434605,-1.0215902,0.5293049,1.7965822,-0.6936302,-0.6347927,0.2314673,0.20111953,-0.95277464,0.85399806,0.9768609,0.27253482
-0.46727982,-0.5546257,-0.3501394,-0.51886696,-0.95104545,0.4046629,-0.0021139488,0.009520396,-1.0053447,-0.6641873,-2.7637072,0.5566956,-0.9975006,0.08306621,-0.049989022,-0.028900765,0.6961058,0.014569417,1.3804563,-0.17774306,-1.1367288,-0.608391,0.4860527,0.55434775,0.31566897,0.27874056,0.7955382,-1.6138957,1.4919665,-0.008858712,-0.6861159,-0.43366835,0.816854,-0.8799014,0.54000634,0.43101445,0.37602085,-0.85617256,0.9744365,-0.015110492,0.13961941,-0.3047388,-0.28822148,-0.4466046,-1.9408062,-0.42302412,0.035195388,-0.08464526,-0.45384377,0.38061023,0.6216508,-0.7915553,0.14941974,-3.030044,0.06457333,0.018041067,-4.4713445,-0.8756427,-0.47436896,-1.374891,-0.44451976,0.7624814,1.443396,0.14596166
-2.7840278,-0.63049763,-0.74299216,1.2811202,-2.441246,1.1353956,-0.3009231,0.66148776,0.17817041,-0.25194845,-1.5421627,-0.633982,-0.17804265,0.5250886,-0.6902513,0.09302198,0.75351197,0.054701153,1.2947345,0.25548977,0.2482268,-0.40891722,0.81909025,0.23680057,0.3964416,0.4109677,0.52388597,-0.086668074,0.17158656,-0.2206334,-0.39756426,0.422936,0.46554172,-0.9706139,0.25725535,0.103261515,0.87103695,-1.4401262,-0.24728611,-0.9631802,-0.82598,-0.110645935,0.22550957,0.21193007,-0.36668128,-1.591568,0.7363326,-0.22376373,0.8755545,0.43063864,-0.4253825,0.72347844,0.14974342,-1.4139333,-0.67604643,-0.4299147,-1.9580063,-0.42663345,-0.18177885,1.1128016,0.19007938,0.028433992,0.83760315,-0.57955253
-1.4904618,0.056337833,-1.0159583,-0.33916298,0.76163006,0.29316476,-0.2805246,-0.46572632,-1.1450056,-0.5727593,-0.9825726,-1.3050429,0.5653662,-0.1436867,1.2967246,-0.7396624,0.5066522,-0.2128267,0.47473413,0.914443,-4.022282,-0.23426571,0.47032738,0.7849641,-0.35416588,-0.33701026,0.82420725,0.2424831,-0.0756385,-0.5915324,-0.78751194,0.13855346,0.7294394,-0.17124745,1.2024542,0.19549397,0.44248804,-1.2410563,0.24981184,0.41542295,-0.10431859,0.4176184,0.1471169,-0.8247539,-1.4318789,1.4021153,-0.020881236,0.29072055,0.63609135,0.34833997,0.7617221,1.1964115,0.7840688,-0.99678034,-0.7976978,-1.8865191,1.6053576,0.19163117,0.20600809,-1.531948,0.5422301,0.197331,0.09466252,-0.50338274
-1.7445571,-0.057653062,0.7834376,-0.5789071,-0.347198,0.6643126,-0.4947085,0.84188956,-0.9996135,0.17209148,-0.19483297,0.7281672,-0.6011409,-0.81867486,0.75394285,0.17994107,0.6576509,-0.1326217,1.151212,0.31209242,-0.12323518,0.3369791,-0.18563156,0.020701038,0.78231317,0.6818028,0.63993746,-0.6786454,-1.1186787,0.44432825,0.7877471,0.08711787,-0.76277924,-0.028529396,1.3544989,-0.8105468,0.781938,-1.587479,0.055618625,-1.0474983,0.9122779,0.98392767,0.2321507,-0.18945102,-1.2772455,-1.9293361,-0.062463395,-0.0060999,1.4605403,-0.2608979,-0.18285291,0.7590612,0.4260201,-1.5779806,0.18384472,1.0127714,-0.8296604,0.5476837,-0.17658548,0.74577624,0.27166444,0.22803283,0.5169696,-0.14354713
0.13493766,0.27448848,0.00429841,-0.034603618,-0.33103186,0.5292533,-0.5163943,0.6888682,0.43286073,0.24686708,-0.69233763,-0.10464333,0.24386752,0.1332132,1.0079701,-0.47159886,0.8905832,0.278071,0.7804897,-0.005600421,0.10757551,0.2782166,-0.28096887,-0.07889154,0.7934769,0.099003986,0.11780012,0.10741673,-0.75287706,-0.040833604,0.17932674,0.89726484,0.66516656,0.030918643,0.87941283,-0.21960604,0.5764859,-0.14880414,0.30388755,-0.44161436,-0.44570807,1.6364129,-0.03998888,-0.07591565,0.1439641,-1.153421,0.7399859,0.45505098,0.26501065,-0.59043604,-0.2169031,0.6473466,0.2763334,-0.8327516,0.21439826,-0.6142557,1.0450114,-0.9758529,0.48314983,0.35571736,0.23510829,0.1275018,-0.3233307,-0.20793588
-0.4452817,0.42291364,0.51643693,-0.8298325,0.5841532,0.73450375,-0.5719001,-0.49716288,-1.0574971,-0.23236161,-0.5395104,-0.81528366,-0.7491223,-0.5857611,1.776108,0.27370676,0.7425073,-0.03232079,-1.5242455,-0.3893514,-0.6004984,0.52872723,0.19887495,-0.31501722,-0.42455137,-0.38602245,0.8918751,-0.033403035,-0.72333074,0.060434714,0.45605177,-0.4773357,-0.6429324,-0.03007809,0.38294616,0.22137317,0.16755126,-2.3628697,1.2135727,0.27834833,-1.5432533,0.46794102,0.13410468,-0.82002115,-1.232117,0.6624152,0.6753918,0.09750688,-0.10519744,0.020592732,-0.046010867,-0.08795992,0.7328532,-0.094875716,-0.29500574,0.36433792,0.9808659,0.8163559,0.51762825,-1.0627412,0.7677115,0.08051006,-0.36701426,-0.38747174
-0.20230085,-0.33018488,-0.330644,0.1394602,-0.8082297,0.35188615,-0.7258886,1.6858029,0.3078108,-0.049451668,-0.5371754,-0.62000495,-0.10593494,-0.4395694,-0.3141598,-0.0025232222,0.2648502,0.12829097,-3.385596,0.20130982,-0.7161793,-0.56119084,-0.30400556,-1.0721346,0.45353192,0.08731864,-0.4178265,-0.58131033,-0.8921983,0.1960372,-0.1942464,0.43615243,0.17995036,0.16444458,0.5287447,-0.49000227,0.592671,-4.289266,0.11659847,-0.4688476,1.0024735,-0.52501345,0.31671828,0.83243513,-1.0109779,-1.4567035,-0.05651124,0.06152968,-0.35171413,-0.3669433,-0.72031885,1.233045,0.4304028,-0.8597378,0.6738757,-0.8856586,0.4144708,-0.3976159,-0.5035897,1.0173662,0.3616905,-0.56513387,0.18647441,-0.14844564
1.6294324,0.15787636,0.24150676,0.8512778,-0.60657334,0.24002185,-0.960875,1.5679258,1.3318361,-1.0242485,-0.16796924,-0.6328789,-1.1672969,-0.12743111,-0.41618642,-0.5206557,0.20849168,0.09168038,0.7802276,0.36836377,-1.673009,-0.2697896,-0.11328688,-1.862418,0.9587681,0.4262041,0.32148293,-0.5121281,-1.1789658,0.13096331,0.74346656,-0.1404175,0.3646695,0.3412128,0.32166436,-0.15379319,0.6855107,-0.3885952,-0.042835858,0.14693817,0.38855982,-0.63677067,-0.16491555,-0.11810921,1.798119,1.5997318,-0.5225079,-0.48855034,-0.20760393,-0.3234078,-0.49650735,-1.0965657,0.41715336,-0.55099297,-0.27875206,-0.04180695,0.73433244,-1.0711392,-0.5588248,-1.133802,-0.0027914313,-0.110691175,0.03737798,0.26178685
-0.04752597,-0.40876633,-0.06862207,-0.9452545,-1.1644356,1.0536299,0.01652209,1.8568134,1.2194595,-0.49592564,-0.44814333,-0.33309644,-0.21472795,-0.66885376,-1.0908098,0.4089564,-0.326067,-0.40139723,0.005988417,0.58701724,-0.2400947,0.56090814,-0.24340712,-3.6489062,0.14649338,-0.58768106,0.14325434,-0.5067143,0.42443642,0.9853649,0.6556012,0.85121286,0.42742252,0.9960398,0.8034511,-0.79938287,0.5187885,-0.6759126,-0.36103714,-0.5035606,-0.6112893,-0.47558305,-0.021077242,-0.0017370303,0.15719381,-0.6391165,0.77824605,0.35855463,-0.45432085,-0.41768476,-1.3857399,0.27652046,-0.56675184,-1.8833014,0.43194765,0.4596269,-0.9828812,-1.3205755,-0.20569849,0.7747191,-0.3086045,-0.45740798,0.09191262,0.51783466
0.5163051,0.03216125,-0.18192582,0.3153556,0.966365,0.5414109,-1.9463786,0.572447,0.38880843,-0.8833141,-0.4038895,1.2120937,-0.41630772,-0.9412303,-0.36106104,1.0290772,-0.13757424,-0.23262721,-0.35815984,-0.28824827,-2.3212063,-0.59373343,0.15233234,-1.7563642,-0.7165531,0.35191807,0.5228741,0.06771695,-0.2755855,0.5543806,-0.23278251,-0.25891787,0.42178223,0.2577363,-1.242395,0.36461487,1.1155099,-0.2289694,-0.27571988,-0.015762113,-2.4987833,-1.1585313,0.26000175,-0.13667172,-1.4460483,-0.54194844,-0.7902373,-1.899498,-0.9510643,-0.123453476,-0.33879736,1.1083428,-1.0328224,-2.716099,-0.64933395,0.072696425,-1.5489016,-1.63876,-2.41291,-1.3239756,0.08024563,-0.37282467,0.71952564,0.5663588
-0.2771807,-0.9693282,0.20483275,1.072647,2.1239467,-0.042203125,-1.1808714,0.19820753,0.32082692,-0.62650687,0.24330506,-0.700203,-0.67504,-1.06129,-0.7639718,0.15691362,0.15388379,0.42693636,-0.49392638,0.16981283,0.27239898,0.8272513,-0.35997176,0.62872005,0.5364462,0.35834387,0.7119896,0.31961071,-1.2425177,-0.35059926,-0.5222944,-0.76205504,-0.2835274,-0.24214406,-0.863646,1.0998542,0.6092758,0.48572502,-0.31386712,0.4623271,0.19102284,-1.7452854,0.27795294,0.27774894,-0.5071367,-1.5631998,-3.332408,-0.23641099,0.1648308,0.5171736,0.8976318,0.028677305,-0.13689256,-0.8849006,-0.4421963,-0.48247933,-0.2678017,-0.9513575,-1.8112847,-1.8760252,0.4254103,-0.4098639,0.80961233,-1.7091762
-0.5267853,1.1110393,0.15108271,0.4069766,1.587021,0.76650566,-0.0702528,1.7320977,0.2282701,-0.17013033,0.41097704,-1.4218907,-0.209461,-0.39220124,-0.22458157,0.48303816,0.1382537,-0.09065105,0.48513827,-0.5296732,-1.0526084,0.84995764,-0.25875154,1.3441675,-2.1690497,0.10086648,0.12925033,0.33187464,1.8596748,-1.5632094,0.053766385,0.19960573,0.65146226,-0.045167964,-0.10862532,1.0111208,0.4094101,-0.12783943,0.21414202,0.3657962,-5.2232747,-1.1485907,0.60284615,0.3805916,0.6715224,0.7839339,-2.8934693,-0.4809062,-0.6316225,0.59375966,1.1335363,1.1427867,0.20781437,0.29025242,-0.45769116,0.14415401,0.2399414,-5.73115,-1.6662947,-2.7299497,0.42204526,0.3054624,-0.2842908,1.3070072
0.20768256,-0.20019104,0.5527812,0.23621559,1.2725223,-0.21232511,-0.4445669,0.73714036,-0.16589014,-1.0693024,0.6060548,-2.3424876,-0.3381883,-0.25348908,0.35859615,-0.050328624,0.37468687,0.15309401,2.4313505,0.21188655,-0.56792927,0.33332142,-0.019644381,0.5168973,-0.55424416,0.5737582,0.23541646,0.14538543,0.21440075,-1.2723714,0.83518034,-0.32308954,-0.0863706,-0.57884365,-2.5093014,1.7011857,0.5915925,0.5694743,0.8282102,-0.13267675,-1.7944955,-0.67511636,-0.46284205,0.37955517,0.3313057,4.4023924,-1.3471861,-1.1924993,0.39614624,0.3218391,0.29334527,-0.7196707,-0.4074858,-0.3093326,-1.4082323,-0.60563356,2.017977,-2.2987692,-1.2607274,-4.75904,-0.678061,0.27515855,0.07926598,-0.74952036
-0.31121272,-0.03158589,0.5466942,0.23031816,0.11636987,0.19136281,0.76089776,0.8694949,-0.31157133,-1.1286837,0.32971922,-0.74525756,-0.55700856,0.8362382,-0.54309887,0.04272294,0.19015875,0.14493755,1.6303052,-0.017433984,-0.7444411,0.6822689,-0.6956822,0.8043,-0.20288178,-0.18168223,0.7400863,-0.10272335,0.030668674,-1.0201448,0.59113854,-0.04321581,-0.22768223,0.18383236,-3.102291,1.7851495,0.7267717,0.012770015,-0.14680351,0.6912145,0.41832888,-0.5324268,0.09822822,0.60067075,1.396023,3.81089,0.2813545,0.7392803,0.7355013,0.2834047,0.36440912,-1.0032855,-0.9309655,-0.12730113,-1.5303547,0.5772097,1.5835764,-0.17204385,-0.48622817,-4.6500406,-0.7092992,0.31306788,-0.6214887,1.5707405
-0.27944186,1.4946204,0.84298134,-0.78633916,-2.2790146,1.0681701,-0.8081134,1.4999899,-0.1997222,-0.46028012,1.1546087,-2.526286,-0.9731715,0.3015947,-0.792349,0.26032135,0.008864604,-0.7860684,0.69389087,0.22322333,-1.0031319,-0.10736695,-0.3280954,0.6982719,2.0222301,0.26409724,-0.14627643,0.28245863,-1.704603,-2.2687895,-0.42615363,0.59800047,0.6924949,-1.3130332,-5.176706,1.4765718,-0.049058355,0.67045397,0.48845088,-0.015155572,1.0714678,-1.3000107,0.81871,0.02729881,0.71321994,2.3547103,0.30773127,1.3985642,0.18083632,0.2431342,0.6773532,-0.14009576,-0.74702775,0.23060153,-2.1864853,0.11159283,1.1467264,-0.3181129,-1.2679095,-6.783438,-0.81339616,-1.1203132,-0.36172566,2.2269766
0.77895135,1.0257523,0.34867314,0.14328644,-0.5449277,0.09305903,0.073430955,2.2024717,0.20787066,-0.8155569,1.094416,-3.0710998,-0.97494584,1.3231381,0.18508716,-0.47249,0.13510138,-0.97287506,1.217208,-0.3223379,-0.58304054,-0.58254,-0.2950529,-0.96004623,1.0824299,-0.35854176,-0.17451921,0.30675665,-2.50082,-0.5310976,-2.553401,0.10283782,-0.6657588,-0.76655996,-4.964463,0.8215924,0.47513705,1.379357,0.2644982,0.17236407,-1.0820043,0.5274011,0.08715562,-0.5538502,0.45901486,-0.075927906,0.24808593,2.0870895,1.3083408,0.2514626,0.15626058,0.21214758,-0.9920559,0.13823214,-4.0720716,-0.12176415,0.70786315,-0.50325453,-2.0675972,-4.1640396,-1.006467,0.44132057,-0.17641121,2.9468539
0.5052785,-0.19538893,0.35931012,0.1781336,-1.2276132,-0.43826953,-0.96715355,-1.2010665,0.18879479,-0.43234235,0.14600793,-3.0879893,-0.6073102,1.171865,-0.3803721,0.9509422,0.6866266,0.09218453,-0.3610743,-0.07158391,-0.9845033,0.29486987,-0.1641736,0.72437376,-0.12064619,0.48664522,0.39798117,-0.27454343,0.16375604,-1.0237974,0.06734016,-0.295483,-1.428293,-1.0001872,-1.2163657,0.6819962,0.046854842,-0.2694515,-0.010308957,0.48015422,-0.12797058,-0.1783882,-0.27812603,1.2115003,0.109933995,-0.11542377,1.3023926,1.1848618,0.29522914,-1.1613519,0.3792812,-1.5750782,0.6516161,0.7240986,-1.4640925,1.0544528,-0.33087745,-0.50785977,-2.7326066,-3.9360883,0.055539954,1.0490575,0.121295586,2.3858154
-0.21721967,-3.698002,-0.93002015,1.9414917,-1.9035552,0.24755244,0.1299904,-5.1334743,1.107065,-0.11623766,0.4398115,-5.9436326,0.40066835,1.208244,0.34365547,-7.2533813,0.046184257,-0.18787415,0.26439625,-0.47213385,-2.1020136,0.32025155,-0.49822435,0.26623207,0.15581024,1.8751801,-0.1674187,0.48948964,0.017700505,-2.761609,-2.4202719,0.62675613,-0.32236975,0.76140106,-0.26098922,1.2467468,0.18182594,0.33382535,0.26816127,-0.9202287,0.31463006,1.9667922,1.3115234,-0.7541331,0.84828025,0.21296997,2.0145445,0.9517402,-1.5876299,0.35340333,-3.0807915,-4.095508,0.23565082,-1.3562442,-0.13875985,0.75590986,-0.75143045,0.4809317,-1.8252434,-5.593762,-1.2341009,0.21784045,0.37043744,3.4495928
0.07874498,-0.09465636,-1.1082214,1.8842652,0.76678807,0.67803663,0.014872638,-2.4077451,1.4467796,-1.6421994,-4.12216,-1.3113652,-1.3877189,0.7025379,0.5774378,0.04763882,0.1689247,-0.6620309,0.9023555,-0.012041101,0.07123162,-1.1282165,0.7955712,-0.36655024,0.6846957,-0.2801767,1.1211976,-1.1843133,0.13084947,0.10186053,-0.89513046,1.9187038,-0.13024302,-0.8364235,1.1084971,0.401239,-0.9730871,-0.070294574,0.30775744,0.6589417,-0.5508861,-0.8900607,-0.5986746,1.089513,1.5592719,-0.2212204,-1.6968559,-0.7895701,-1.0417573,-0.010167972,-0.039233617,0.062219083,1.7921365,-0.007506701,-0.44185448,0.7461431,1.1332114,-0.8288624,0.27607024,-1.8973954,-0.037782386,0.5467085,-3.4802098,0.7137518
-2.24692,-0.17486177,0.59531975,0.025362097,1.4157927,0.43553883,0.030419342,-0.43432093,-0.504391,-0.010610265,-3.0212805,-0.69107836,-0.82876396,1.3500477,1.5649811,-0.5647981,0.30642244,-0.50772816,0.12598433,-1.7071133,-0.21290597,0.2401273,0.56723493,0.094991714,0.71900016,1.0388252,-0.45683014,-2.3724692,-0.43150905,0.143682,-1.4465363,0.77480185,0.27784467,0.12534203,-1.3573737,1.5431892,-0.56636864,-0.086204946,0.75873613,0.3625189,1.3372203,-1.186257,0.72473294,0.17745951,-0.2915019,0.27580026,-0.85799444,-0.80372584,-0.85770446,0.57142854,0.64944965,-2.6870105,1.1289265,1.3175611,-0.9930852,-0.0498771,0.011168506,0.5687418,0.23747006,-4.012216,0.654854,0.6058048,-1.9212745,0.5942918
-3.7439907,0.11235162,0.88653195,-0.3698519,1.4028941,1.1619676,-0.29207614,-0.5898117,-0.03574112,0.5136951,-4.9027443,-0.72136587,-1.2552171,0.8114873,0.711433,-0.84603316,0.027583264,0.04634828,-0.45427105,-0.7736859,-0.89673877,-0.17064385,-0.58637524,0.80223,1.3047934,0.74606186,0.61374635,-2.3721955,-0.5375346,0.6747266,-2.7803617,-0.06879229,-1.1164696,0.19527945,0.45749286,-2.194203,-0.021592163,0.40901023,1.096106,-1.1258049,-1.1482234,-1.8673548,0.07456119,0.119765654,0.8741131,1.8347545,0.23305124,-0.45156917,-0.75265133,0.8351117,-0.60519934,-0.16854867,-0.63734186,-0.27366376,-0.63726044,-0.046208717,1.5610172,1.965003,0.5095519,-5.054238,-1.1042289,1.0062244,-2.5214093,-0.20322019
-1.6190866,0.6774039,0.665906,-2.761029,-0.42645463,0.9303614,-0.2566097,0.07282157,-1.2329602,0.050073605,-5.378609,0.82552594,0.13308121,-0.05411217,0.5912068,-0.23918127,0.123199105,0.16526073,0.1880049,-3.0801513,-1.3744848,-0.55146086,-1.6393086,0.8629095,1.1133922,0.45396233,0.84710234,-1.0641723,-0.21973307,1.0854586,-0.004770658,0.6132751,1.0966274,0.035707563,0.06634842,-3.2716508,-0.682673,-0.449853,0.4916421,-1.1483661,-2.3527317,-0.8905047,-0.07881178,-0.2208332,0.3981424,0.5340439,0.048359077,0.5663778,-0.45263764,0.7428249,0.4637438,0.6889273,0.59276116,-0.8466645,0.22469072,1.154233,1.7752353,-1.6176424,0.5336006,-4.0786643,-0.298951,1.0397941,-0.94314766,1.6375363
-0.42646372,0.17589861,-0.013219812,-0.96596354,-1.5910363,-0.31010273,-0.47489402,-0.03697316,-0.92264503,0.0452709,-5.5912127,-0.37053102,-1.4093829,-0.3309329,0.49693012,-1.5140293,0.092119336,0.28248227,1.4411583,0.20482448,-0.72445077,-0.31581426,0.39733073,0.027475344,0.7643377,-0.19097862,0.9602277,-1.1124712,-0.41058242,0.9407807,-0.6911813,0.8894009,0.030999208,-0.36825034,-0.37761617,-1.3695252,-0.34128436,2.2525249,0.8491519,-0.065212585,-3.7028577,-0.3807103,-1.1857653,-0.21764046,-0.5728935,-0.5664712,0.20939249,-0.2913781,-0.970001,-0.3053849,0.9585954,1.3084571,1.0607765,-1.5547795,-0.2212409,-0.30937675,0.5628949,-1.5006258,0.78600055,-0.01740156,-1.096496,1.1829039,-0.8070455,0.22710377
-0.12651418,-0.4054986,0.6472642,1.0789981,-1.1791363,1.2697355,1.0708339,0.053591162,0.6406443,0.15716337,-0.97834164,1.483302,1.5015821,0.032632936,-1.1281338,-0.009126734,1.5376368,-0.15912528,-1.3150662,-1.13591,0.18990403,-0.88701236,0.28957132,-0.23811346,0.94647104,0.41836032,0.40825903,-1.2377422,-0.35618287,0.9613929,0.20499961,0.20227483,0.6123727,0.11503442,-0.0025758825,0.29282564,0.2602424,1.0575523,1.1456445,-0.12405887,-0.48450005,-0.42046708,-0.6739912,-0.13127206,0.31881702,-1.7953786,1.0055523,-0.7796305,-1.5401618,-2.2653613,0.5791274,1.1392208,1.4616842,-1.3882923,0.15332861,-2.401904,0.49808362,-0.20024669,-0.29031995,0.13030767,-1.6582861,0.3487006,-0.32436314,-1.2453109
1.6144927,-0.2164933,-0.3683565,0.3859999,-1.6660718,0.51516384,0.4167859,0.1126002,-0.64251053,0.56374407,-5.007443,0.46213138,-0.3208708,1.006736,-0.47121,0.8498952,1.3752928,0.04005203,-0.61432993,-0.3096218,-1.554962,0.11474294,-1.4855572,-0.42288265,0.1552566,-0.7993333,0.62637687,-1.519721,0.6845066,0.9453343,0.10040443,-0.35363,-0.2632171,0.28676313,0.20756447,0.89189523,0.07558328,0.949116,1.4553871,0.23383431,-1.6969905,-1.1736627,-1.2789524,0.05685691,0.48515108,-0.037201304,-0.0705133,-0.19227745,-1.5544704,-0.99134505,0.88896966,0.48859394,1.1241573,0.4393629,0.46549585,-0.64462423,2.4334316,0.69066215,0.4001836,0.5872657,-0.24119851,0.026983174,1.1136868,-0.8002958
1.779342,-0.1300905,-0.7160204,0.36019424,-1.2229186,-0.45724633,0.5664622,0.027041811,-0.029257713,0.53977394,-3.3145664,0.1130793,0.24522555,0.12524535,-1.6398877,1.0881994,0.9987863,0.21798356,-2.20043,-0.36999142,-0.8834288,0.060827572,-0.43523714,-0.11629095,-1.6313612,-0.3870795,0.20288484,-0.22683932,0.28584772,0.3883916,0.39167327,0.0128338095,-0.49392152,0.82866037,-0.7519042,0.8455679,-0.63682395,-1.1502702,1.1573437,0.482312,1.3289984,-1.4477822,-0.8498816,-0.44695356,0.18133372,-0.9660506,0.47492698,0.5280832,-3.1267998,-0.22006279,0.033720814,0.2610119,1.8527014,-0.5073497,0.43820035,-0.4930147,0.8201683,-1.3207281,1.1586316,1.0703182,-0.6284255,-0.9618324,0.62919724,0.59832203
0.057069037,-0.15838093,-0.9090121,0.9542461,-0.51804537,0.4485742,0.43579525,0.19818996,-0.8253379,0.68270564,-4.071903,0.3464626,-0.617101,0.11164993,0.6207624,0.7826549,1.0668448,0.15295659,-0.94164926,0.23909263,-0.7060066,0.8245037,-0.749267,-0.22047508,-0.3100303,-0.420562,0.68766916,-1.2968644,1.197042,1.173871,0.10931042,0.47085902,-0.2868781,1.1933467,-0.33221307,0.49635643,0.9881599,-0.2653419,0.9407443,-0.6879,-0.5714157,-3.1788564,-0.1603654,0.57028526,-1.5746723,0.18427154,-0.2448962,-0.30047998,-0.73590714,0.4456043,0.8741457,-0.028794477,1.8159055,-0.46147582,-0.05861042,0.25662798,0.89988244,-1.0935323,-0.35740322,-0.40087506,-0.8397846,-0.028026786,0.68125343,-1.6013836
-1.4332448,-0.43467468,-0.75753254,-0.15463105,-0.029415732,0.37128863,0.19754116,0.26258445,-0.3536639,-0.04666877,-1.4057876,0.04214547,-0.05750023,-0.95504785,0.90156054,0.9710774,0.9847906,0.18126482,-0.31744778,0.766515,-1.3090163,-0.13093552,-0.17861873,0.86910814,-0.1377715,-0.030978432,0.6705535,-0.49622256,1.4037304,-0.51253647,-0.48001,-0.45623338,-0.2186956,0.11184662,-0.20532668,0.045327656,0.66255474,-0.8167479,0.729125,-0.26351032,-0.66604674,-0.45160785,-0.31529567,0.8334075,0.12898006,0.80776876,0.5792143,-0.23102385,1.4088912,0.5357042,-0.048562933,-0.32281917,2.491646,-0.06947659,0.1496241,-0.6929119,-0.021162668,-0.26824713,-0.23337297,0.09417136,-0.3297912,-0.60190475,-1.0792227,0.9581973
-2.5200386,0.22392507,-0.45421916,0.40575054,-1.9026213,0.51933473,-0.2864707,0.7227983,0.25180015,-0.099805,-1.7780755,-0.13893911,0.04836578,0.7621108,-0.7995709,0.7142982,0.019961659,-0.058506064,0.3026043,0.11475256,-0.43885702,0.13942006,0.49186128,0.5528975,0.14256568,-0.1412041,0.97674453,-0.78797454,0.41892618,-0.689451,-0.2779292,-0.30476436,-0.38755807,-0.082245305,0.42711574,0.64986086,-0.41619116,-0.1855642,0.12328518,-0.19154553,-0.15011084,0.53897107,-0.33926904,0.075305894,-0.37612826,-0.7974165,0.73999816,0.59185696,-0.9398425,0.2845212,0.011778651,-0.19161676,1.1352798,0.005933779,-0.40233633,-0.19703194,-3.8946438,-1.3325707,-0.10296287,-0.18507034,0.13223638,0.094739236,-0.6103728,-0.8149389
-4.3290405,-0.71918344,0.8552973,-0.61459845,-0.920621,0.19804047,-0.510137,-0.7850292,-1.568611,0.09689936,0.22384924,0.6019447,0.34869447,-0.33057085,0.24320345,-0.2629186,0.5443413,0.24389353,1.7610408,0.35871604,-1.3560575,0.44836882,-1.1507238,0.8645094,0.768131,-0.13042788,0.5302335,-0.42134723,-0.28986773,-0.45025745,-0.49985513,-0.035089757,-0.68783987,0.24548243,0.57820266,0.31522775,0.27850983,-0.7970921,1.0338039,-0.22638863,1.0273502,-0.45593452,0.06343221,-0.6824392,-1.1840113,0.13088432,-0.32930726,-0.92363834,0.62806857,0.115573905,1.0036507,-0.50021017,0.68039244,-0.55550593,-0.7918214,-0.34576565,-4.486362,0.59182876,-0.04205097,0.23076911,0.5137031,-0.25571534,-0.7278444,-0.086833306
-1.4348335,-0.145766,0.004556763,0.4340875,-1.1740652,0.8428017,-0.2569085,0.63050693,-0.01798206,-0.026669009,-0.9136062,-0.08017963,0.24340789,-0.61693645,0.57362366,-0.14987712,0.080980696,0.17551197,0.48622715,0.2463124,0.6717274,-0.11105307,-0.7326867,1.365484,0.93063104,0.9752578,0.41479445,-0.010019793,-0.14260174,-0.9622778,0.18102007,0.070256226,0.14230141,0.8035119,0.9493799,-0.6288274,0.24608843,-0.3837393,0.573978,-0.13814178,-0.95275074,0.69829595,0.21572624,0.39769995,-0.4247981,-0.90105844,0.57588714,-0.3749174,0.067917585,0.10059573,0.18899022,1.1586844,0.098177925,0.043843903,0.47871566,-0.57022554,-0.054390877,0.021450495,-1.0089922,-0.41471118,0.6840771,0.12385238,0.1403212,-0.062293388
-1.4914232,-0.24219067,0.68140984,-0.10993392,-0.7506662,0.65410846,0.32529175,-0.9252816,-0.011845792,0.6073585,-0.032227084,-1.2113441,-0.05113998,-0.04320881,1.4293116,0.32581264,1.026691,0.41564196,1.142597,-0.6877132,-1.4582236,0.5655096,-0.524232,-0.34783983,0.8552864,0.7365729,0.5239711,0.710613,-0.7037877,-0.90751666,0.01583425,0.020417847,-0.94812006,-0.10034534,0.5755969,0.81993175,0.38837093,0.72317606,0.13814689,0.10569026,1.0360007,0.37490407,0.19921172,-0.023307925,0.063768096,0.39092186,0.31362644,-0.04160369,0.06895077,0.29348493,0.43644544,0.32661104,0.3092469,-1.3631257,0.02130528,-2.0117848,-0.42307025,-0.4209865,-1.2965124,-0.036026902,0.39086345,-0.038743738,0.23671414,-0.6795371
-0.47592455,0.030892346,-0.21760337,-0.15888698,-0.59592736,0.115557395,-0.42957205,0.7926413,-1.023088,0.08466544,0.26167846,-0.6072032,-0.16074365,0.07782254,0.83021116,0.17696485,0.11346918,-0.30509698,-0.11497215,0.38418755,0.39563337,0.17004736,-0.6067422,-0.07131063,1.1169422,0.35917428,0.20745538,0.43330416,-0.37500867,-0.78113747,0.35949516,-0.2528527,-0.5243578,-0.37329063,0.87061626,-1.0312314,0.05289651,0.80769014,0.08570896,0.16163594,-0.41867724,0.72374535,-0.17486286,-0.12393614,0.30323216,-0.15863647,1.199608,0.30458465,1.0471362,-0.85471714,0.19120911,1.7325875,0.33169878,0.34706342,0.428682,-1.2995262,-1.2503512,0.24125299,0.18933955,0.08506238,1.0656855,-0.6649498,-0.58283293,0.080941394
0.6107341,-1.729379,-0.21760699,-0.17795771,-1.350389,0.43251312,-0.33908573,0.41123334,-0.2736362,0.37875852,0.061615724,-1.9565856,0.38951868,0.26180688,0.7779007,0.30505764,0.78950304,-0.32044992,-1.5781099,-0.10078671,-0.084755845,-0.36966255,-0.24717902,0.003634597,0.049848836,0.46611047,0.6026455,0.27441934,-0.39305618,-0.0069840997,0.26590884,0.015003104,0.30735338,0.15827343,0.13435106,-0.31949255,0.2882609,-3.1061645,0.08409401,0.40754032,0.31203178,-0.12184371,0.21183409,-0.0942763,0.65894115,-0.25338522,-0.33850268,-0.10557177,0.7827948,0.13244548,0.21177326,0.54053074,-0.22519441,-0.13881785,1.0475824,-0.5888946,-3.029766,-0.4315804,0.029139781,-0.09060558,0.7532129,-0.9007377,0.3931902,-0.38140628
0.14943682,0.2429731,-0.98267233,0.592722,-0.79954654,0.8514297,0.3570005,1.369001,-0.4617794,0.41446003,0.33327287,-4.1592803,0.34206575,-0.70883006,0.2682816,-0.5451451,0.0011911598,-0.50197935,-2.593841,0.12746312,-0.93045497,0.60867476,-0.05663176,-0.6970719,0.41470826,-0.3206448,1.1635128,-0.39059535,-0.43344462,0.7580605,0.6359055,0.9043299,0.5895165,0.96129686,0.41643655,-0.49784303,0.007343704,-3.6976228,-0.3594191,0.06261516,-0.9651098,-0.69288313,0.23251446,0.10327122,0.25462306,0.24854413,0.34169248,-0.34285396,-0.021016626,0.47240222,0.6935322,0.09537104,0.20704676,0.22108443,-0.33689225,-0.42603123,-1.9141755,-0.24651827,0.28700545,-0.22765477,0.7624523,-0.60448647,-1.2188182,0.06404193
0.50263065,-0.192817,-0.04850144,0.26042208,-0.07619352,0.06984473,-0.18448333,0.23674512,-0.44409832,-0.2311939,-0.14428228,-2.2790952,-0.51316524,-0.6211578,-0.5297983,-0.2220683,0.68617386,0.7043136,-1.5197568,-0.25873202,-1.9186867,-0.2760036,-0.083613314,-4.0359898,0.044267837,0.7343775,-0.16815993,-0.0071797688,-0.9500071,-0.8345174,-0.41604394,-0.5177149,-0.67362726,0.36544302,-0.39726526,0.38109767,0.32901055,-1.6759746,1.1538982,0.19074193,0.9821604,-0.6146912,0.51272744,0.2914978,0.6075017,0.37223455,-0.35818225,-0.13299438,0.17285176,-0.14916551,-0.43295506,0.20528993,-0.21188575,-0.019990994,1.0588021,-1.7082382,-4.223258,0.29684213,-0.4077654,0.106188945,-0.010106636,-0.5632625,1.1385592,0.2117729
0.13714841,0.32820946,-0.102959074,0.17638768,-0.8085204,0.6121061,-0.6839871,2.114537,0.26863483,0.18741317,0.27443358,-4.239966,0.30034184,-0.41200978,-0.0005471497,0.034429587,0.4163248,0.3815511,-0.17305945,-0.9100738,-1.0201013,0.6929292,-0.041225716,-5.587313,-0.7609311,-0.2545784,0.12209159,-0.05502764,-0.06244165,0.7508437,-0.48413926,-0.623689,0.77245647,0.9410887,-0.40909806,-0.43814507,1.0792669,-0.2393506,0.45481354,0.36747324,-0.12169468,-1.2098222,-0.10914839,0.2915418,0.50426954,0.5627779,0.53325284,-0.2802785,0.043767497,0.065685734,-0.27008256,0.0075164456,0.7031141,-0.7681606,0.08266494,0.23372896,-5.8371415,0.7097426,-1.2889645,-0.07406343,-0.2026162,-0.4352362,0.25071952,-0.104888044
1.145174,-0.5436585,0.66213864,-0.5181826,-0.103763595,0.5971239,-1.7902603,2.734062,0.83430165,-0.58008176,-0.58147013,-5.6928153,-0.34175786,-1.3475784,-0.26329166,-0.07310306,-0.08724446,-0.16634324,-1.1795967,0.3211502,-1.4384214,0.5345205,0.06934048,1.2649182,-0.3916322,0.03626262,-0.04456634,-0.53460777,1.3459377,0.52609766,-1.019891,-0.35510427,0.3903895,0.3279605,-0.5486924,-0.63958544,0.5808121,0.88728565,0.67264974,0.5333733,-0.38108876,-0.8744334,0.44633803,1.350799,-0.7127034,1.035096,-0.061814755,-0.9709263,0.075756684,0.41972548,-0.15246014,-0.3746922,0.55347204,-0.49156004,0.35109156,-0.6820235,-2.710427,0.36151546,-1.4573082,-1.0931315,-0.38519874,0.4745912,0.26502606,0.12625884
0.3075078,0.6006408,1.3709842,0.60193306,0.6507489,-0.39042053,-0.37178546,1.7381964,-0.055440508,0.056415424,-0.23997416,-5.195416,-1.0136245,-0.79623705,-0.24679141,-0.3743642,-0.13946329,0.29281783,-0.5133603,-0.56493735,-0.9131608,0.66846675,0.105727434,1.1316578,-0.11503053,0.330484,0.43677065,0.097796634,-0.16585656,-0.2664061,-1.0794641,-0.7647516,0.5143695,0.11957723,-0.67971486,-0.118370906,0.14442077,-0.8159408,-0.0044741523,0.12981302,0.83595306,-0.7014117,0.4928704,-0.4336615,1.143555,0.56152755,-2.7276056,-0.3944178,0.56205416,-0.9405154,0.7288192,-1.1122421,0.75114024,-0.5110982,-0.44791588,0.56077254,-0.83814204,-1.5916053,-0.69251966,-0.4045929,0.53223515,0.21050996,1.031815,-0.35742387
0.16982391,-0.48685628,1.0403856,-0.7133691,0.36353397,-0.04787161,-0.59995115,1.425365,0.17812419,-1.1127728,-0.25719544,-2.611237,-0.475409,0.60208625,-0.750204,-0.16076356,-0.00083591725,-0.10584737,-0.46035606,0.05462636,-0.5734213,-0.0870785,-0.88635355,0.43395117,-3.391861,-0.08422447,0.71747327,0.5925377,0.6269009,-0.37240767,-0.81418926,-0.14277595,0.55033314,-0.03463657,0.79043555,-0.112752244,0.19197927,0.08161764,0.23616019,0.3640195,0.9039994,0.44818884,0.4769647,0.21582167,0.12347404,-0.12523852,0.55495614,-0.46817368,0.63730156,0.23283629,0.43633598,-1.6791881,-0.52078617,0.1936667,-0.17388108,-1.7929372,0.091506444,-3.3795478,-0.0734933,-0.015616004,-0.0841061,0.36076733,0.42174166,1.0662355
-0.09632427,0.02547643,0.29464415,-0.4188326,0.41049996,-0.061660137,-1.1205683,1.8041011,1.1266215,-0.44116393,-0.3055106,-4.329386,0.44714895,-0.5851157,0.75849307,-0.34106168,0.46833178,0.14419837,0.42046055,0.06364183,-0.39700586,0.43639466,0.14371574,0.56558514,-0.47196713,0.084358945,0.91884565,-0.2695027,0.3265069,-0.14145094,-0.94610995,-0.8339301,0.06349675,-0.9915155,-0.25764927,-1.0128626,-0.05892655,-0.09004071,0.101908386,0.7776007,0.43636745,-1.6422943,0.26513913,-0.34597823,1.5254982,-0.12463556,-0.53844786,-0.21496576,1.0145141,1.2877679,-0.20021623,-2.427226,-1.0056652,-1.0914963,0.078821644,-1.1137449,2.2091858,-3.0585341,1.2390517,-0.6234894,-0.49176583,0.4006483,0.25689796,0.4347523
-0.32241732,0.6304625,-0.5378221,-0.5498834,-2.08001,-0.29398742,1.4559397,2.639208,0.7209637,-0.33522093,0.8390337,-6.333475,-0.2057938,-0.3358727,-0.48573324,-0.13409501,0.50086385,0.3588498,2.1632154,-0.120004885,0.9556732,0.023240441,-0.054046687,1.1591958,0.5919065,-0.3886808,0.5098305,-0.08482049,-0.52138466,-0.18862057,-0.50813633,0.6829186,-0.88174456,-1.0115712,-0.87097925,-0.4573047,0.80494887,-0.8537364,0.44383657,0.04639801,-0.57430893,-1.1358508,-0.4750948,0.9263536,0.91970724,2.2898011,-0.06236017,-0.47897503,-0.32015464,0.77743316,-0.5518006,-2.138337,-1.2596424,0.5186946,-0.5900199,-0.825135,2.9567227,-1.2744789,-1.8445575,-2.6108136,-0.30870607,0.3467908,0.6836839,0.524406
0.32978547,1.0622766,-0.53659225,0.50168014,-0.8027688,-0.21866527,0.60200953,0.37815008,0.17701066,0.10065316,0.91283745,-5.5845165,0.010509769,0.75989336,0.7144546,-0.5439905,0.080759525,0.16444415,0.10594634,-0.8473145,-1.972061,-0.5017224,0.36329478,0.12919307,1.335965,0.07407976,0.4473779,0.14492059,-0.85140085,-1.1640077,-1.2480487,0.48942646,0.8719262,-1.7084076,-1.7236235,-0.6188485,-0.13658904,0.08724504,0.3289752,0.20923398,-0.5930472,0.47154856,-0.07213627,0.11337134,0.62711793,0.23664607,-1.3263491,1.136708,0.06830507,0.6492671,-1.3290739,-3.1335664,0.513791,0.021700194,-3.1650193,1.163139,2.3959415,-0.4044051,-1.6935894,-2.0086436,-1.3021138,-0.14446653,0.34413102,1.9071804
0.83993596,2.012646,-1.3730476,0.37854707,-0.5621134,-1.1946362,0.6918317,0.36801183,0.38734686,0.0572093,0.83186156,-3.82216,-0.33501998,1.9581326,1.3230877,-0.7720309,0.63028634,0.4204828,0.46955118,0.17859113,-0.6911437,-0.5563963,-0.37932104,0.06257743,-0.23893832,-1.1754638,0.3163161,0.22680347,-1.9224613,-2.6515663,-1.1938568,-0.48128548,0.099689126,0.04315171,-1.9335257,0.19764173,0.82512057,0.13372678,0.20638195,-0.013764379,0.10824532,0.8279332,0.35768062,3.1692991,0.75403816,-2.1296887,0.062022764,1.811436,0.31263933,0.2778564,-0.8551673,-3.6437209,-0.8159186,-1.6315583,-2.498949,-0.44524905,1.0564159,-0.30464736,0.12319182,0.6361829,-1.4059277,-0.8612422,-0.8654216,2.3632314
2.130642,0.16999589,-0.25081846,-1.159059,-1.1737349,-0.6088795,-1.4457633,-3.1149664,-0.00065423886,0.24921383,0.7417033,-5.086324,-0.4912622,0.89730674,0.9296906,1.1765146,0.549926,0.051513717,0.34414324,0.20489548,-0.24861753,-0.64023,0.15723257,0.31814972,0.65309817,-0.19512853,0.46818563,0.1231695,-1.376472,-4.287473,-2.4270728,-0.15742779,-0.15450288,0.5317988,-0.8227751,2.2061732,0.84533936,-0.5737516,0.47826108,0.3341277,-0.09580499,0.9911481,-0.049901817,1.7652316,-0.118517585,-0.02092596,-1.2278491,0.3953276,1.0448834,-0.12406558,-0.6163496,-4.2596707,-0.05655176,0.16682456,-0.63860846,-0.616037,0.074748866,-1.1812016,0.9931031,0.123774365,-0.13817592,1.2731911,0.24371888,-0.61512816
2.653475,-0.56582355,0.39196303,1.2410997,-0.9173181,-0.3923649,0.24251829,-6.1945286,0.70622087,-0.35240778,0.16991709,-6.993261,-0.029793693,2.1387713,1.521597,-4.230879,0.5165518,-0.8462244,-0.3696487,-0.5997045,-0.8982309,-0.30809423,0.30039594,0.6760733,-0.43447283,2.640489,0.2746118,0.22324163,-0.26279977,-6.1928997,-4.153229,1.4865199,-0.17020321,2.22492,-0.2819774,0.9954102,0.40150735,0.20897701,0.67033917,-0.27041197,0.11007696,0.73178476,0.096462816,2.585724,0.696776,1.2896672,1.024707,1.031774,-1.5105551,-0.55802786,-0.64016914,-6.037644,-0.515982,-1.3304055,-1.6701438,-0.13481818,-1.6480757,-0.015663663,0.37721267,-3.0070446,-1.8866626,1.8527445,1.1136756,1.2181152
-2.1206608,-0.2927858,-1.1914152,1.7153833,-0.38033837,0.29941908,0.033993844,0.20421454,0.5126625,-0.03592244,-1.6476057,-2.0673385,-3.3912039,1.0022966,0.5598085,0.2261271,0.33599776,0.037660163,-0.39201817,0.7455386,0.7061391,-0.990144,-0.88768274,0.23485033,0.9681436,-0.03168088,1.1675533,-0.54980624,0.19428186,0.74635655,-0.25703692,1.7917538,0.03653805,0.5438344,0.4123014,0.35991442,-2.2871678,-0.0075113922,-0.45227733,-0.3387402,-1.1649328,0.030556163,-1.9516124,0.7428177,-0.7551047,-0.66892767,-0.59410644,-0.91300493,0.01910073,-0.3751119,-1.5996203,-2.0458624,1.8267571,1.0466279,-0.8253987,-1.3598669,0.03838102,-1.2075317,0.47625467,-1.1516409,0.34227407,0.75523937,-2.8560338,1.3409636
-1.0016074,0.2964244,0.31761703,0.19335464,-1.1062365,-1.2245086,-0.22972898,-0.36082178,-0.5732847,-0.7783024,0.85038626,-0.16145897,-4.6480484,1.0619168,0.16205215,0.21318437,0.2792532,0.5323422,-0.9258262,1.1837801,1.2100106,-0.2853811,-1.0549831,-0.5438663,0.97335577,-0.075279385,1.005733,-0.4599804,0.4745815,1.4896675,-0.52294207,1.810429,-0.67020303,0.20868495,0.7856586,0.45647326,-1.0347544,-0.16442747,-0.34428734,-0.8410581,1.2499516,0.16129993,0.17570129,0.1972177,0.16109236,0.39435107,-0.3135652,-0.7994406,-0.8105885,1.430033,-1.5816051,-1.9268502,-0.78109586,-1.2644098,-0.3673784,-1.2550552,1.1486953,0.43453574,0.39101613,-0.8001051,0.43149158,0.2606132,-1.6204218,-1.4705393
0.45303687,-0.0017085711,1.0119542,-1.4358689,1.1969894,0.31652206,0.28496158,-0.9951098,0.04152082,-0.15074311,-0.908108,-0.50098306,-0.93099546,0.28697345,1.3045057,-0.001373227,0.11595897,-0.302476,0.7950761,-0.5597595,0.76704407,0.3961105,-0.46629035,0.32676286,0.70253533,0.5626911,0.22781336,-0.3456555,0.46882892,1.17209,-1.8539734,1.1372225,-0.22236007,-0.13653591,0.4065877,-0.1268664,-1.1345196,-1.1197191,-0.08854903,-1.3904606,-1.1779233,-0.570189,0.28683326,-0.18502724,-0.3602787,0.6951894,-0.68795246,-0.63857585,-1.0093836,-0.68601,-0.28726825,-1.0688123,1.3456008,-0.45818087,-0.711582,0.19529147,0.029958066,-1.6698297,0.25207075,-1.4484252,0.091165446,0.6377115,-1.9563392,-0.10351133
0.073491104,-1.0340486,1.0724037,-2.0112174,1.3962158,0.35266453,0.31613234,-0.56138426,0.11262521,0.60257936,0.9695419,-0.4205393,0.9232341,0.47813177,1.0648803,-0.035576105,-0.1426636,0.0056377104,0.88153785,-2.0280943,-1.1202487,0.8161063,0.44445974,-0.4264352,0.55176795,-0.15506695,-0.63551366,0.15013945,-0.26191884,0.5861542,-0.42424333,1.3873715,-0.00781899,0.54465437,0.16436745,-1.8229904,-0.89857566,-2.4152675,0.13342698,-0.35153645,-2.0989442,0.11210288,0.085259326,-0.7940149,-0.4025648,0.20909199,0.71158457,-0.30084214,0.1659388,-0.39799565,0.023947487,0.19165675,-0.41762304,-0.7868174,-1.4677881,0.56387335,-0.3791886,-1.6223168,-0.39583394,-0.953821,0.5704282,1.3267745,-1.52635,1.2029425
0.48297083,-0.11275889,0.08609976,-0.29988238,-0.7320288,-0.060465544,0.27203542,-0.3666097,0.26711538,-0.9629002,-3.0062456,-1.2519196,0.37506798,0.4960388,-1.348893,-0.06760433,0.5250539,-0.3845115,1.1491753,-0.862171,-0.6119873,0.4629091,0.57994527,0.48083854,1.3674529,-0.08680467,0.7528767,-0.22950308,-0.24436422,0.4046145,0.6212343,1.3734953,1.3610612,-0.5499129,0.44445804,-0.8516351,-1.498983,0.72976005,0.45528594,-1.0350064,-2.2934628,-0.7389726,-2.082514,-0.23550493,0.2533434,-0.28066626,1.1332167,-0.066460386,0.1638505,-1.1126698,0.07353687,0.5584408,0.5425321,-0.14653899,-1.0609717,-1.3611926,0.74890834,0.6516367,0.34882626,-0.003897841,0.09792112,0.21235014,-2.5091588,0.53651375
1.6955434,-0.15745105,0.29527113,-1.1558143,-0.120309465,-0.568874,0.20653196,-0.952083,0.4966443,0.37438238,-4.0589933,-1.0393329,-0.13580461,0.27076966,-2.428834,0.35312048,0.7827527,-0.58216417,-0.3710998,-0.27605557,-0.46399727,0.8488702,-0.5592699,-0.04840074,0.2689336,-0.20058417,0.8586809,-0.13511819,-0.18311968,0.7851197,0.19274649,0.7020458,-0.2293282,0.37510803,0.14981996,0.26756236,0.17456797,1.2976828,0.49011537,0.42492354,-0.7877478,-0.6750212,-1.256449,0.95197767,-0.16161802,-1.2852634,0.9304148,-0.6472065,-0.07724192,-0.72478706,-0.40190116,0.03489279,0.3694989,-0.19005035,-0.055443246,-1.3269925,-0.058563013,-0.50699186,0.30177343,0.08844084,1.0034274,0.4542145,-0.94100255,-0.84409124
0.21694155,0.069449335,-0.16942838,-0.8027194,-0.1522716,-0.76724005,-0.181721,-0.36804947,0.19370344,-0.31374058,-1.6534083,-0.803273,-0.21355848,-0.5418458,-2.9577186,0.006118867,1.0131148,0.6705823,-0.097727194,0.20444395,-0.903606,0.20174533,-0.22643352,-0.88314927,0.072278604,0.5303376,1.5421064,1.1354836,0.23031808,1.315933,-0.56923664,0.04130571,0.48063278,0.59572136,-0.033872996,0.5857153,-1.2372069,2.1827242,1.4149894,0.03209156,-1.0987694,-0.32589105,-0.5062513,0.49297497,-0.3209367,0.7976495,-0.091410816,-0.13647053,-2.3837683,0.22118932,0.49882197,0.38586682,1.1910517,-0.6112658,-0.49415806,-0.8586355,0.80418134,-0.6593729,-0.16649392,0.3985132,0.05935542,-0.40415677,-0.15954052,0.0483262
0.6432943,0.37526652,0.8401078,0.2450807,0.49922833,-1.5929474,0.2703864,0.2297542,0.33573362,-0.22099067,-0.47105312,-0.11615725,-0.2448946,0.24011159,0.999137,0.5440265,1.1950586,0.5640536,-1.5134984,-1.0493155,2.277745,-0.03441331,-0.46731135,0.42295367,-2.1295924,0.08168032,1.2608992,0.20307575,0.94451076,0.32018957,0.28241825,0.63569444,0.055069324,0.17374265,0.3102687,-0.58458114,-0.5277307,-0.8847937,0.5748174,-0.511849,-0.5529115,-1.21988,-0.67927456,0.32790425,0.20397477,-0.049053773,-0.32035324,-0.16596128,-3.8378925,-0.023643594,-0.5089939,0.76714444,0.09261303,-0.26133335,-0.7273975,-0.31712392,0.56328773,-1.2978679,1.2991064,0.48254877,-0.45421287,-0.35416642,-1.1537722,0.12552026
0.5874278,0.26579756,-0.16505788,-0.78009164,1.0341538,0.13456261,0.08711538,0.24040574,0.21323338,0.35076132,-2.0519753,0.46505675,-0.055383753,0.3370949,-0.71342444,1.2369012,0.38870275,0.003198302,-0.7694263,0.26721793,-1.8536494,-0.29016685,-0.21118474,-0.010335207,0.179526,-0.051593665,0.82283497,0.8767004,0.3476056,-0.8851062,-0.30696404,-0.18266335,0.8303019,-0.21964608,-0.029219879,1.0824611,-1.375446,-1.0664874,0.7078241,-0.29567692,0.23985696,-0.5228598,-0.8485119,-0.32898298,-0.4617205,-0.01409112,0.06491695,-0.16792238,-2.545098,1.2664529,0.43046027,-0.21466337,1.1032861,0.3962908,-0.7696219,1.1122597,0.44043648,-0.13831735,0.44705158,-0.0075262687,0.64766634,0.19183224,-0.49470744,0.1824311
0.19771796,-0.39720178,-1.1535698,-0.3515391,-0.6471157,-0.43169072,-0.0021875703,0.061239216,0.29092312,0.67438847,0.037481558,0.9712028,0.25579914,0.11328863,0.003423206,1.1909509,0.104340486,0.043574072,0.119738065,-0.0837802,0.36468822,0.21972518,-0.08414846,0.3865595,-0.17061178,0.46014178,0.72669804,-0.0052608023,0.5656345,-0.5792405,0.6439242,0.14820552,1.1689066,0.12515022,-0.097495966,0.4424682,-1.4298017,-3.5784733,0.18534213,0.21885425,-0.5714414,0.0461328,0.32579055,-0.7993818,0.19875088,-0.23726916,-0.0151483575,0.0231462,-0.79640543,-0.24878143,-0.22763695,-1.3002837,0.4294986,0.34649774,-0.22838894,0.18180868,-0.08953796,0.33316723,0.5698853,0.53652763,0.5969803,-0.15472862,1.1891886,0.27866703
-1.2024181,0.50424933,-0.82372504,0.074060604,0.008792249,-0.5111626,-0.03905916,-0.83696496,-0.3316524,-0.40428546,-0.27907705,-0.029517595,-0.19455662,-0.2700218,0.7699645,0.41758683,0.68383765,0.7029584,1.1421541,0.17181005,-0.59156984,-0.05871278,0.036390573,0.32764927,-0.5498356,0.41820493,0.7984849,0.76718307,-0.23327506,-0.74378306,-0.36778343,0.44422814,-0.2676743,0.26822737,0.3890918,0.866984,-0.8643569,-1.0322216,-0.0011993257,0.41245598,0.20796175,-0.59340566,-0.40971163,0.51022094,0.8604297,-0.2280945,0.34907794,0.043343652,0.15077716,0.35151282,-0.42253447,-1.5214792,0.7864927,0.5051289,-0.60116965,-1.0382584,-2.1188648,1.0897405,-1.0064203,-0.9420962,0.8006285,-0.2753223,-0.5599147,-0.35818827
-1.053823,0.096020885,-0.36326236,-0.049817912,-1.2647816,-0.91575074,0.3498888,0.15721598,-0.07402636,0.22512883,-0.6195385,0.4948562,0.2437141,-0.7990151,-0.64689356,0.6354789,0.20836776,-0.46538976,0.57201743,-0.07644286,-0.13179149,0.40433213,-0.108778745,0.7375497,-0.6980101,0.5172363,1.6263778,-0.11649297,0.058482066,-1.2542856,0.36674574,-0.060368013,-0.043546222,-0.4200081,0.5950639,-0.0712591,-0.12460499,-0.7740358,-0.04403636,-0.37839583,0.10608201,0.20970498,0.30879337,0.2185899,0.3423793,0.33947024,-0.27335402,0.134804,-0.41747227,-0.2697172,0.0029580942,-0.042113934,-0.30896795,0.9022807,-0.24487977,0.7771909,-4.208875,-0.11583785,-0.96069825,-0.16341674,1.0647663,-0.41063163,0.08438101,-0.51953965
-0.74382246,-0.30629763,0.6685663,0.056446414,-2.354107,-0.15927595,-0.053358126,0.5568959,-0.5473324,0.22353597,0.2855273,-0.56564516,0.7040043,-0.40915528,-0.16249028,0.29403806,0.035893835,0.40525904,-0.07822375,0.022115022,1.7171943,0.32489994,-0.5458572,-0.05310396,0.85132605,0.13203451,0.8555591,0.37836605,0.48409605,-1.0258055,-0.27517205,-0.60247433,0.22141017,0.38352656,0.6478067,-0.13697536,-0.710436,0.61134654,-0.7002835,0.3453967,-0.04578532,0.6051591,0.7652162,-0.59748787,0.2686397,0.56217843,0.503588,0.16760889,0.6212937,0.8549717,0.32672605,0.68445504,0.39807948,-0.18269908,-0.073628426,-1.3075409,-2.449632,0.026075725,-0.78972214,-0.5110681,-0.03326933,0.28609872,-0.84984,0.7655624
0.1979553,-0.011097464,-0.29231682,0.11204396,-1.4362376,-0.5722165,0.1380319,-0.22227782,-0.5080786,0.57060075,-0.31787872,-0.5261589,0.3031208,0.00891601,-0.009094427,-0.02489849,0.25494072,-0.98528904,-0.8550162,-0.14286615,-0.6705388,-0.39419124,-0.537589,-0.023748703,-0.36591285,0.92135614,1.2971848,0.4063892,-1.0121574,-0.64702344,-0.13357733,0.5058847,-1.2301316,-0.19863263,0.35856372,-0.064863995,-0.54747206,-0.9434774,-0.60076857,-0.36054257,0.28178263,0.5394718,-0.0059631797,-0.1928809,-0.31043205,0.08004779,-0.15752646,-0.12104725,0.22662918,0.58386534,0.9543188,0.31270516,-0.07505829,0.15030971,0.17307183,0.18627743,-3.2189279,0.14469126,-0.58825624,-0.14613377,0.59190905,-0.15768993,-0.78717005,-0.0010095477
-0.46803558,-0.14217187,-0.5506189,0.7820681,-0.93185717,0.4843043,-0.22530226,-0.15480427,0.2982504,0.46219802,0.42750385,-2.0266867,0.8464233,0.6287309,0.8560496,0.12919377,0.25542754,0.17911689,-0.43369222,0.68834966,0.8161124,0.20370866,-0.022995085,0.090096764,1.1244969,0.40529063,0.95398253,0.017130274,-1.0377141,-0.50931334,0.5190736,0.5969442,-0.55025536,0.3057132,0.30242568,-0.7503985,-0.5797827,-0.46283475,-0.39004615,0.124844834,-0.3021904,0.5352269,-0.105971,0.76288646,-0.18832877,0.5335316,-0.14005776,-0.09078251,-0.30479842,-0.070663825,0.472694,0.8471558,0.7408211,0.12777942,0.3002901,-0.9346882,-6.120706,0.15966882,-1.7593259,-0.038310796,0.18697824,-0.04985801,0.20944756,0.10947271
-0.60818607,-0.57025605,0.80543846,0.076605774,0.34131896,-0.030811658,0.6694887,0.67262125,-0.32545456,0.7066368,-0.29190335,0.54016006,-0.4529862,-0.36770612,0.486978,0.50065506,0.6432286,-0.0035836657,-1.0793241,-0.29132682,-1.1099755,-0.20987803,-0.35515773,-1.0061384,0.12650101,-0.14292642,0.9546308,-0.32088706,-0.35621744,-0.041772425,-0.2961119,0.024717398,0.17645782,-0.38077587,0.3053571,0.008628622,-0.50671744,-3.5344307,-0.31591427,-0.49946538,0.57399553,-0.110964,-0.5060677,-0.124383226,0.0016188959,0.17963448,-0.38764894,0.4031222,0.0906448,-0.66394675,0.5340981,0.017678257,0.19994435,-0.6499429,-0.14308475,-1.2900503,-6.308176,0.089423016,-0.5109404,0.35492456,0.8658931,-0.68621963,-0.11359254,-0.07680891
0.85269505,-0.7076922,-1.3499757,-0.6728266,0.9025786,-0.98026836,-0.7818045,-0.51782936,0.22694889,0.36062905,0.095425695,-0.6581771,-0.031128949,0.07314849,-0.36709565,0.23163508,0.73600936,0.062999696,-1.6489367,0.5514599,-0.6327761,-0.023583317,-0.32474804,-0.44478306,0.7974414,0.38947117,1.1319753,-0.30908287,-1.6123806,-0.24559778,-0.10572999,-0.24527182,0.2468909,0.75878286,0.7540745,-0.28129286,-0.16207622,-0.57488245,0.30045164,-0.061026286,0.0014883542,0.101464905,-0.28282282,0.30505443,-0.52996784,0.20004134,-0.51761836,0.25903785,-0.27674404,0.17875725,0.43029973,0.6820031,0.7976714,0.2675526,0.89923215,-0.8625236,-6.54085,-0.28932187,-1.6569252,-1.0587652,0.8775709,-0.17440274,0.56136817,-0.21114711
0.5538365,-0.39776668,-0.76705086,0.15445106,-1.1300911,-0.27130812,-0.37815917,0.08741605,0.015229046,0.7791855,-0.08726179,-1.1390084,0.51885235,0.45672837,-0.18697485,-0.70702505,0.44403756,-0.6830348,-0.39597803,0.19582303,1.048513,-0.41863185,-0.014286809,-1.6134645,-0.23597306,-1.0369382,1.0802668,-0.23682101,-1.23134,-0.93167573,0.05092665,-0.40437278,0.07233864,0.4424972,-0.24528834,0.3755544,-0.28781858,-0.77706695,-0.08264961,0.070710324,0.2134874,0.24813302,-0.023381682,-0.7399881,-0.5040843,0.09645172,-0.22831875,-0.0069665285,-0.60391885,-0.13114451,0.61544394,0.5009664,1.0227977,-0.46944755,0.208797,0.048533972,-3.4769342,0.41373733,-2.2072241,-0.9061749,-0.19404061,-0.13172418,-0.00064277265,-0.36562017
0.33541146,0.3988477,-0.509031,0.5500532,-0.019238409,-0.8634587,-0.72628164,0.052729968,-0.25647226,0.12216662,-0.19253331,-0.8798846,-0.16924262,0.55884236,-0.84733486,-0.46858752,0.59483856,0.11367591,-1.032809,-0.5446778,-0.98304343,0.36104298,-0.14438193,-4.5885324,0.52993715,0.3786051,1.2120998,-0.6699215,-2.4589455,0.24367316,-0.23013724,-1.0859293,0.14623223,0.15531637,0.49162626,-0.6945737,-0.3324729,0.35679007,0.9319031,-0.5060377,0.0759214,0.5683355,0.16291766,-0.4638829,0.03076904,-0.12938638,-1.3248045,0.09269045,-0.01077771,-0.04978705,0.106564485,-0.14668342,0.21365334,-0.05918704,0.5103305,-0.6709798,-1.0398972,0.6371961,-0.72400314,-0.18070221,-0.63571674,0.64472145,-0.013032926,-0.061614502
-0.18116547,0.64440525,-0.7481276,-0.5788623,0.37580463,-0.5050174,-0.6374912,0.8608459,0.15647599,-0.14278448,-1.1617064,-4.722118,0.51552033,-0.08340469,-0.68458164,-0.3734319,0.29061958,-1.0677557,-0.47993883,-0.14394698,0.30982897,0.5719212,0.27351534,-0.17266509,-0.8065385,0.22358768,1.4777769,-0.18627208,-0.36656532,-0.67950284,0.20831618,-1.3959221,-0.66169125,0.13297598,-0.40962997,-1.0143713,-0.46745494,0.81663823,1.1374882,-0.16270591,0.25262758,-0.3868417,0.32851076,-1.5537069,0.041039504,0.5461689,-0.41143793,0.027509348,0.30953443,0.7344415,0.5727468,-0.8587273,-0.0509309,-0.6616322,0.15984726,0.24440256,-0.26836875,-0.35928988,-0.1901442,-0.49136752,0.14273512,-0.2712199,-0.30136985,-0.22354239
0.87798554,0.21829051,0.22822987,-0.2786306,0.0726177,-0.5370823,-1.8627352,-1.4979489,0.9860233,-0.076629244,-1.0024592,-1.8989005,0.22461797,-0.39195538,-1.083925,-0.28997228,0.54175293,0.053384975,1.1497313,-0.45280942,0.4849509,0.5734022,0.29608124,-0.06427863,-1.7138308,-0.15961084,0.9189066,-0.10130759,-0.9746774,0.45287877,0.35579652,-1.0515052,0.4567773,0.8817071,-0.33162948,-2.1631584,-0.5271891,1.0718515,0.7322442,0.49870172,-0.5929795,-0.6811134,0.26956338,0.1812424,-0.4572122,-0.24651086,-0.16467892,-0.5262459,-0.7969915,-0.9514131,-0.27563357,-1.0179156,0.10484027,0.58860034,0.2321255,-0.54262996,-1.2181869,-0.64551747,-2.077935,-0.39379895,0.19532746,0.48893142,0.2907154,-1.0648882
-0.8453655,-0.85569096,1.4753386,-0.29278603,-0.053624954,-0.16696621,-1.1366163,1.0763997,0.39724654,0.41084567,-0.6654284,-0.2661354,0.72206074,-0.69652283,-0.51613504,0.23388784,0.5677204,0.38440478,0.3442985,-0.1827577,0.12635066,0.96070325,0.72733957,-0.9740981,-3.2265308,0.03478126,1.0282159,0.20678133,0.25908926,-0.31313777,-0.7122451,-0.38591576,0.59806675,-0.9905321,0.7787733,-1.8749318,-1.0375448,0.2692743,0.5580277,0.7730698,-0.18721408,-1.4055789,0.30011556,0.25351492,0.17467093,0.759442,-0.11047749,0.3474215,-0.2399496,-0.39195418,0.040065784,-0.36864495,0.53126943,0.013120106,0.61038494,-0.35205954,-0.9557491,-1.8278288,-0.45854154,-0.39284408,0.39946464,-0.097406276,0.1892119,0.039842263
-0.4795692,-1.6727338,1.033845,0.5029109,-1.5821416,-0.45347768,-1.7074006,0.7138291,-1.0997733,0.37310183,0.39207372,-1.0347267,0.4120648,-1.0725359,-0.9846776,0.19199786,0.42310658,-0.26145813,-0.83537924,-0.61396194,-0.42047614,1.1216009,-0.45186394,-1.0176613,-1.13559,-0.22008291,1.1712769,-0.041135237,2.1389368,-0.73111266,-0.9983855,-0.41507024,-0.08650225,-0.3786822,-0.4972614,-2.1448307,-0.45819968,0.021239521,0.6508929,0.46225995,0.14238141,-0.20255055,0.117873624,0.47844467,0.59015065,1.1735281,-1.2874941,-1.8687983,1.3148115,0.5855784,1.0844729,0.7263382,-0.10536663,0.54670817,-0.7474413,-0.04613023,1.3095167,-1.5646816,-1.5673227,-0.40569377,-0.16311792,-0.16688243,0.16052556,-0.5310472
0.34931108,0.5541066,0.2225066,0.4616593,0.38522246,-0.11187872,0.25616294,1.7396435,0.9966861,-0.13101637,0.24374543,-3.2767718,0.36615348,-1.2301849,-0.25255656,0.84864575,-0.06423522,0.37052494,-0.06728918,-0.252149,0.29715613,1.1779435,-0.30568746,-0.04562478,-1.290414,-0.3571383,0.7530257,-0.24366951,-0.54381883,-1.5795271,-0.18945733,-0.4049896,0.11133388,0.061452284,0.08233676,-5.0571084,-0.55415326,-0.56877166,0.29662105,0.32284263,-0.112873994,-0.17303431,0.18923478,0.81004536,1.1165907,0.46515006,0.52700263,-1.9417005,0.5574912,-0.18891777,-0.252197,-0.84761405,-0.15165524,-0.5559882,-1.1289005,-1.0964748,0.7727315,-4.003211,-0.10015148,0.20682164,-0.14715573,0.1634071,0.014547572,0.9251678
-1.0517576,-2.4898229,0.2705359,1.4179658,-0.34282875,-0.03961656,1.1222161,1.4345797,1.1979803,0.61656475,0.97176707,-2.3898282,-0.479478,-0.9326267,1.1701423,1.371158,0.5441328,-0.2526877,-0.99384165,-0.15555719,-0.28728703,0.72387165,0.05194598,0.08820855,-0.19623339,-0.5094157,0.93960637,-0.22970341,-0.7060418,-0.49932274,0.26984504,-0.0957144,-0.790263,0.7179603,-0.43851134,-3.312816,-0.76287794,0.10970608,0.30992192,-0.009222968,0.63575196,0.2797331,-0.2454846,0.30754903,0.77956474,0.38144162,-0.017056562,-0.041768327,-0.45745027,0.70078576,-0.2754994,-1.4065135,-0.5558954,-0.6226028,-4.131037,0.0016003053,0.40941525,-4.02924,-0.98439187,-1.1890975,-1.452954,0.9074283,-0.5018909,1.6045784
0.9745536,-0.4057432,-0.9165842,0.6264543,-0.023781821,-0.54086536,-0.39642242,-0.08143878,-0.4358656,0.9107022,0.4415678,-2.679331,-0.20288478,0.9243645,0.68709433,-0.1521214,0.00234967,-0.8806557,0.33983302,-0.86751306,-0.05767925,0.08064786,0.20400141,-0.6406774,0.23386717,-1.6981307,0.6856481,-0.8487658,-1.7681882,0.18681125,-0.7745802,0.3537807,-0.08812733,-0.38389155,-2.6120527,-4.021292,-0.2502157,-0.70262927,0.18156128,0.16446197,0.039740916,1.0338709,0.36765626,1.9318912,-0.49802947,-0.8870339,0.37195054,1.5384082,-0.25538927,0.19289732,-0.33036226,-1.1056519,0.7294652,-0.33726686,-2.4858084,-0.56304663,0.43306974,-0.11142177,0.91431665,-0.55412513,-0.6680604,1.5631545,0.38849902,0.8018656
0.115528286,-0.31084135,-1.3446715,0.932422,-0.3153017,0.5158482,-1.3028604,-4.6095634,-0.7389148,1.0393537,0.8711336,0.6290052,-0.088182464,0.24561515,0.77177584,1.1633042,0.4903037,-0.23294458,0.51665545,-0.6815154,-1.7013294,-0.76593983,0.30563885,1.1319743,-1.6375765,-2.0972831,0.5210324,-0.31984806,-0.4557444,-1.1783209,-1.5581906,0.15692261,-0.7776569,0.83951753,-1.9992299,-1.5442108,-0.24996068,-0.9675385,0.21348323,0.4672581,0.1393124,1.8828448,-0.029161898,-0.14826055,-0.006428641,-0.21802141,-0.078154564,0.8464651,-0.46798867,0.34022248,-0.72801024,-0.7116133,-0.53852594,-0.19916055,-1.3020968,0.657767,2.036881,-1.1214949,1.2949405,-0.44782075,0.05076099,-0.38758966,0.53700423,0.6517605
1.5507255,0.6591717,-1.3784919,1.3060794,-1.3542994,0.09566577,-0.013568098,-7.01512,1.1877854,0.7640424,0.18876868,-2.428051,-0.017631322,2.2797375,1.6515486,-2.7133067,0.84217805,-0.22565396,-0.44103166,-0.3012282,-1.0618477,-0.8323095,0.73520607,0.33645487,-0.71087384,0.7494008,1.5066912,-0.8413235,-0.49514693,-1.5057255,-1.0509441,1.5037717,0.47044384,2.39797,-1.5432088,-2.1647952,0.26185703,-0.005772687,0.14878702,0.3022388,1.3020473,-0.34430078,0.12740484,1.4351515,1.1651238,-0.18211186,-0.6182366,0.10232282,-1.193782,-0.43790662,-1.2373439,-3.1272063,-0.35436252,-1.0566294,-1.384687,0.85457915,0.34459746,0.14210488,1.9060595,0.59754837,-0.30839875,-1.3483204,-0.18230791,1.7884731
-3.1227942,-0.30181873,-0.8788126,1.9829713,-1.2491952,0.5572634,-0.3529653,-0.6050111,0.86280525,-1.4007126,-0.93807787,0.04728309,-1.8495853,0.27893087,-1.115174,0.6422935,-0.16081734,0.10574263,-1.1724708,0.7729785,0.9445255,-0.23052515,-0.87935084,1.3176074,2.6133952,0.7501985,0.6998067,-0.0068880557,-0.7595716,0.95385885,-0.32771847,0.5998242,0.7459149,0.4090776,0.22631077,-0.89055985,-1.7773317,-0.060593303,-0.34104356,-1.0896952,-0.7437148,1.1122879,-4.6129313,-1.1174698,0.3880989,-1.1162411,-0.21797064,-2.3363972,0.5185233,-0.22914764,-3.6204214,-0.045808233,-1.0774548,-0.15759046,-1.5277992,-3.700539,0.44615668,0.14852718,0.08230183,-1.846671,-0.107996084,0.23366567,-0.73714024,-1.0106719
